193 64
139 -0.9120205 2.2167237 -1.7050915 0.5572247 -0.20924395 -3.0747461 -0.4743296 0.2500906 1.8725348 0.93003047 0.98902786 -0.2457669 -1.0346478 0.7160504 0.69208974 -0.6248636 1.5554838 -0.8477437 -1.2160106 0.11125701 1.2163172 0.10076583 2.6827343 1.8052306 -0.39544594 0.6485608 -0.8987708 0.7571443 -1.4511372 0.6772304 0.033341732 -0.1456545 0.2625108 0.093659975 -2.5392528 -2.106091 -0.45331424 -1.1311269 -1.0599047 1.8695549 1.0967175 0.23120528 1.9612414 1.7442229 -1.203074 -2.1233962 -3.748611 2.1077108 2.2595 -0.20879321 -0.69683534 -2.2434525 0.5217275 1.8016694 0.9515925 -2.0833952 1.21821 0.72123355 -0.89105916 -0.18279721 -0.51573926 -0.37434018 -0.027103348 -0.45977795
23 -0.302458 0.45686364 0.052216627 0.2251761 -0.06650722 -0.6797009 -0.14389214 0.34076282 0.58106744 0.082684845 0.23028989 0.12572704 -0.76028097 0.27396992 0.2569712 0.21382022 0.04765842 -0.23816936 -0.5773191 0.35727802 0.5270155 0.206947 0.027440509 -0.20658095 0.488762 -0.4186582 -0.39182878 0.045192696 0.22874762 0.69501597 0.391226 -0.89378554 0.06949771 0.0883736 -0.21238308 -0.6103154 -0.2996557 -0.07799217 -0.2499665 0.56792945 0.45612738 -0.33517656 0.010899344 0.5150891 0.3545503 -0.258737 0.25842732 0.58578765 0.39628476 0.33539912 -0.21872912 -0.29544708 -0.12348919 1.090772 -0.5687677 -0.3322102 0.08972879 0.2662517 -0.051672008 -0.32838854 -0.01334662 0.02237928 0.085492715 0.6564538
73 -0.49729282 0.035942122 -0.26969323 -0.37197834 0.09737454 -0.41927052 -0.20095141 -0.30755973 0.24195942 0.27991104 -0.045686167 -0.06209612 -0.708841 0.05435473 -0.036148716 0.1927048 0.074215114 -0.684132 -0.8538219 0.15328166 0.028042538 -0.07539015 0.28890932 -0.21636851 0.13892163 -0.0004496476 -0.35362566 -0.16534366 -0.17915072 -0.05011723 -0.029716818 0.5755495 0.54189 0.5432526 -0.44580126 -0.39030418 -0.6312551 0.124024466 -0.55054975 0.2340452 0.2695075 -0.57219225 -0.27333885 -0.30132967 -0.88403267 -0.64915204 -0.018122574 0.1547138 0.61907905 -0.2854139 0.22066624 0.20697679 0.5550479 0.88697 0.89198947 -0.25306496 0.52386266 0.25329694 -0.28515548 -0.44036475 -0.36134896 0.4165972 0.15616728 0.38722798
79 -0.534832 0.15982154 -0.30573863 -0.18075353 0.026183762 -0.5275567 -0.037612833 -0.38309285 0.16067718 0.18844971 -0.0014478756 0.06264179 -0.9198799 0.121526696 -0.16333823 0.04306737 0.2349515 -0.4972176 -0.67708623 -0.017788298 0.32300216 0.3105783 0.13675149 0.17953365 0.3339114 0.013006961 -0.015386097 0.059140336 -0.24075411 -0.29562253 -0.08195188 0.43861064 0.38019183 0.36142167 -0.33430803 -0.39552018 -0.49651745 0.12502642 -0.41197896 0.25702643 0.40102175 -0.49651036 -0.39133278 -0.3375266 -0.80462223 -0.8759807 -0.22248071 0.08346967 0.6099902 -0.07741539 0.62985355 0.15082783 0.41310588 0.9628644 0.9093756 -0.2566398 0.54824454 0.023925273 -0.2476374 -0.30043522 -0.6350161 0.5139554 0.28147694 0.6459243
129 -0.56631786 0.250589 -0.4419771 -0.23265041 -0.08665315 -0.17748077 -0.1603293 -0.33141315 0.1744106 0.42281902 -0.2264658 -0.22787084 -0.88381314 0.044977456 0.056424286 0.09783944 0.3079262 -0.52307814 -0.76010114 -0.05411096 0.16627777 0.17788894 0.07630417 -0.01530377 0.38971126 -0.09211138 -0.16818689 -0.04800673 -0.2453186 -0.22498229 -0.042168863 0.34888923 0.25898698 0.52615505 -0.2851883 -0.24338494 -0.2595377 0.013297502 -0.41827327 0.3413968 0.25166416 -0.49337608 -0.28017402 -0.4130665 -0.6608734 -0.74715286 -0.3050783 0.20532493 0.86306417 -0.22447005 0.57943887 0.031122768 0.6151875 1.0032465 0.7055564 -0.123727255 0.5298461 0.17928405 -0.34267196 -0.35711318 -0.5531464 0.57477814 0.2162683 0.4248573
24 -0.311631 0.4964504 0.0772224 0.16800088 -0.087763034 -0.56424785 -0.18952529 0.28504205 0.59446985 0.10286885 0.20889485 0.10167964 -0.74039006 0.2460663 0.31084743 0.24611457 0.008124291 -0.3078285 -0.63487095 0.3641333 0.522961 0.24926008 0.14205004 -0.20512566 0.41135764 -0.46193227 -0.34689286 0.0879847 0.2172317 0.83624256 0.36087328 -0.87568665 0.03370646 0.15435763 -0.23874325 -0.63598555 -0.2607352 -0.12543692 -0.11905713 0.55903065 0.4196161 -0.34403396 -0.021779606 0.42215002 0.37962726 -0.14958064 0.19609623 0.5568621 0.3416521 0.33156833 -0.2510167 -0.311885 -0.053004783 1.1923903 -0.4968527 -0.34037083 0.113736756 0.25724345 -0.06421698 -0.28439477 -0.036256906 -0.036097273 0.07037141 0.6483224
44 0.024293583 0.42932275 0.36029896 -0.43970174 -0.341527 -0.7586412 0.043495648 0.58071333 0.29044405 0.27052516 -0.33507866 -0.27487257 -0.39111426 -0.21234307 0.51296663 0.62395954 0.19548105 -0.064988956 -0.40426168 0.14308183 0.58174723 -0.80748063 -0.1807156 0.8149622 -0.05568861 0.7298989 0.1627628 -0.41757935 -0.5996404 0.5140355 0.8008168 -0.31757277 -0.4980196 0.5564444 -0.20092854 -0.6411407 -0.44921368 -0.68095756 -0.11677505 0.5081811 0.49400353 -0.0595214 0.23603526 -0.18835889 -0.20203416 -1.2139755 -0.44918975 0.4165885 0.40205646 0.09186305 -0.27512848 0.18246812 0.29579255 0.22092478 0.45092875 -0.48121777 0.0948637 -0.10612566 -0.1889245 -0.64239466 -0.06867647 -0.22761662 -0.21699417 0.67752737
179 -0.043937135 -0.0021151467 -0.14755765 0.15059103 -0.5191849 -0.42509222 -0.105169535 0.31843343 0.5157086 -0.23658447 -0.24474154 0.059116133 0.13110948 0.3572753 0.53296727 0.41274217 -0.079298645 0.05489368 -0.37186348 -0.25541738 0.0037822928 0.33209065 0.09031846 0.6965633 -0.058565877 0.15508235 -0.7899625 0.07109161 -0.5433525 0.07414709 -0.40893534 -0.14694868 -0.11741155 0.06511551 -0.20271048 0.20917761 -0.29524577 0.05427992 -0.19544432 0.11304865 0.3254258 0.33013445 0.21273589 -0.41585195 -0.21083368 -0.7243094 -0.4036083 0.2814245 -0.11481694 0.514479 -0.25752673 0.251948 -0.45454893 1.1947716 0.17047192 -0.4277635 0.441957 0.15942968 -0.25910586 -0.07016046 0.4088384 0.22757573 0.032398853 -0.25877243
35 0.5939057 0.24001169 -0.061550494 0.3272018 -0.27307415 -0.3605732 0.7588998 -0.21930587 0.52199084 0.08832886 -0.24321686 -0.21718408 0.11606958 -0.30795982 0.44343588 -0.028509475 -0.10824329 -0.23190655 -1.1200858 0.42768565 0.22510587 -0.4710465 -0.10967986 -0.17298831 0.61961293 -0.21826236 -0.098109186 0.043549582 -0.90355134 0.20901173 -0.24708322 -0.4486498 0.56858 -0.122696646 -0.2762211 -1.5659816 -0.101726055 0.2769138 -0.43253952 0.37060523 0.8056419 -0.46207547 0.34237367 0.1080386 -0.26829845 -0.6815497 -1.5046905 0.5492103 -0.08901298 0.2442541 -0.3623685 0.5596424 -0.0032209565 0.67116714 0.089698 -0.716799 -0.09618842 0.13757263 -0.54155284 -0.17607696 -0.47729972 0.30747417 -0.023460625 0.24503262
45 -0.011420413 0.4277857 0.35567895 -0.4537953 -0.39097533 -0.7573637 0.10375185 0.6714946 0.29686308 0.22961219 -0.33981535 -0.31709296 -0.4107646 -0.22152193 0.49563354 0.58087796 0.15536699 0.040859185 -0.4389426 0.0792667 0.43275923 -0.790413 -0.32482478 0.80019796 -0.081789725 0.7148994 0.2330407 -0.42357937 -0.5408858 0.48717526 0.77080303 -0.31381825 -0.53588206 0.50740427 -0.24173619 -0.74793905 -0.44114828 -0.7447191 -0.11893458 0.58576447 0.433945 -0.19482848 0.22019883 -0.27575392 -0.25269735 -1.1947073 -0.41831124 0.3852084 0.4414768 0.100756556 -0.29400223 0.06334671 0.3242848 0.28976476 0.45788977 -0.50605994 0.13310821 -0.12673703 -0.24086972 -0.5850725 -0.050434783 -0.299396 -0.21185566 0.65019035
183 -0.13542017 0.03390266 -0.1228366 0.34743768 -0.66150343 -0.4004756 -0.103404425 0.37893322 0.57477957 -0.18658292 -0.18968046 -0.16096212 0.21797016 0.31819656 0.3501929 0.23626904 0.014720518 -0.036426727 -0.6287666 -0.27571672 0.07014393 0.32935145 0.042503547 0.7076349 -0.12473323 0.14745237 -0.7261141 0.15776296 -0.33391532 0.30083823 -0.32874873 -0.19294506 0.030566651 -0.044993367 -0.21199876 0.2563247 -0.2876643 0.20764045 -0.14610545 0.21376635 0.34579805 0.29309154 0.049222033 -0.4509182 -0.3668031 -0.71109873 -0.21232896 0.35789642 0.011492512 0.5213927 -0.43433854 0.26328287 -0.46842024 0.861735 0.21224028 -0.45245478 0.39092043 -0.0035202287 -0.38386595 0.062100947 0.44024092 0.21820182 -0.01580142 -0.29512417
80 -0.55641586 0.16999142 -0.37580076 -0.22316416 -0.03783305 -0.4531369 -0.0075715277 -0.38015842 0.29732808 0.13619222 -0.072631255 0.054997176 -0.83023435 0.09704551 -0.18500882 0.11135106 0.25911814 -0.39016905 -0.73733896 -0.041783914 0.22886482 0.27463165 0.16050845 0.21965854 0.35482883 -0.09476168 -0.073368154 0.032295913 -0.12600872 -0.35952848 -0.13560413 0.3790978 0.44056237 0.3330305 -0.37797654 -0.3391668 -0.44961905 0.06750157 -0.47335055 0.3211281 0.4101093 -0.51596963 -0.43046102 -0.23596607 -0.79197633 -0.8280349 -0.15853007 0.12327479 0.64380044 -0.15031502 0.60047436 0.07762215 0.4741411 0.9467764 0.97140056 -0.22899637 0.523553 0.04138751 -0.22248043 -0.38928196 -0.5395527 0.5002074 0.18003756 0.570689
36 0.6945794 0.31930265 -0.1294833 0.35523427 -0.29825687 -0.35722965 0.8127144 -0.1935782 0.5108251 0.089352176 -0.2817284 -0.200772 0.063538514 -0.30239183 0.42642 -0.00841846 -0.04878718 -0.19445926 -1.1187354 0.36704043 0.20021182 -0.48413432 -0.10472215 -0.20302865 0.5923083 -0.24933122 -0.058129083 0.042207554 -0.8836442 0.22246191 -0.24839438 -0.46329278 0.59484345 -0.04519802 -0.22918208 -1.5445049 -0.053365417 0.2958946 -0.44586378 0.45611584 0.74864024 -0.44439656 0.3927452 0.107357174 -0.300702 -0.71878666 -1.4236612 0.52472436 -0.08627353 0.2476727 -0.32672483 0.51004416 -0.08503765 0.6907766 0.14424807 -0.7560094 -0.14399458 0.173961 -0.48358625 -0.2259134 -0.49116513 0.36378583 -0.023239844 0.22068319
182 -0.18699487 -0.059300017 -0.26413345 0.24257478 -0.6995008 -0.32137248 -0.16086863 0.35230935 0.5472178 -0.08245381 -0.23489134 -0.09207118 0.15150616 0.37211525 0.38229826 0.3606244 -0.08984275 -0.020272123 -0.5457121 -0.1572187 0.14378443 0.27096447 -0.015769562 0.7575145 -0.039712444 0.17287378 -0.8110064 0.1255169 -0.5582219 0.004789623 -0.3356522 -0.22218741 -0.106579825 0.033878464 -0.22759427 0.28969288 -0.16949709 0.13461378 -0.2855574 0.15996864 0.3394288 0.36585757 0.22225 -0.35579735 -0.20305267 -0.7517221 -0.33622915 0.29297832 -0.11067852 0.57621557 -0.22840647 0.31662014 -0.41473806 1.0787511 0.13182913 -0.4266433 0.43340784 0.17178969 -0.11430484 -0.084115855 0.34032312 0.16134451 -0.037120003 -0.24335708
2 -0.44020936 0.99925137 -0.07152315 0.31289333 -0.15551992 -1.3288856 0.08970719 -0.65543634 0.7314112 0.9163977 0.14928737 0.11676161 -0.2929493 -0.7553866 0.45137995 -0.053017966 -0.6838522 -0.5560811 -0.54227823 -0.54855776 0.3093307 -0.08457777 -0.51354486 0.03349319 -1.0030103 0.46473467 -0.18131705 -0.3259184 -0.65027946 0.5401282 -0.3325415 -0.25396493 -0.28135052 0.058444913 -0.34559265 -0.650081 -0.17603746 0.8756757 -0.3786308 0.4635372 0.4457555 -0.050732676 -0.14529698 0.18950205 0.17125872 -0.7808353 -0.64691585 0.39228085 0.2877076 0.04452942 0.4493534 -0.17955975 0.22083509 0.97384804 -0.01850422 -0.6630591 -0.1537217 0.16559081 0.064736575 -0.5952466 0.27271572 -0.060780898 -0.40644914 0.12949371
61 -0.07926015 0.51469356 0.1496601 -0.6432693 -0.5721235 -1.15699 0.40582955 0.42009485 1.2804337 0.48031452 0.38936752 0.11189296 0.27054256 0.023880597 0.4605792 -0.015238987 0.18721218 -1.0530646 -0.33798403 -0.58839923 0.361078 -0.44829273 0.5640814 0.19731295 0.552781 0.28853217 0.5774934 -0.25590396 -0.11354254 -0.316927 -0.5320358 -0.5822145 0.08765342 0.2336977 0.057450246 -0.74453837 -1.0961872 0.008228089 0.029109482 1.0023413 0.3459797 -0.0014419534 -0.3985014 0.103560224 0.00413832 -0.12698281 -0.6827211 0.6968653 0.5376092 0.3884458 -0.21437313 0.35918438 -0.03020607 0.91414946 0.31353366 -0.20553474 0.53198594 -0.028239213 0.4208366 -0.35002318 -0.2579936 0.114915065 0.116840094 -0.34828922
130 -0.5567326 0.21383011 -0.4847098 -0.16409643 -0.024482733 -0.22700115 -0.08643335 -0.38458797 0.0798454 0.42915598 -0.20337173 -0.21226482 -0.89733213 0.009229828 0.040251978 0.108613886 0.30955923 -0.42712632 -0.8094751 -0.030995984 0.19325691 0.17814153 0.049944308 -0.023417166 0.32565454 -0.056124188 -0.21371882 -0.010591227 -0.2475608 -0.17218754 -0.07075626 0.46601957 0.25948542 0.48930836 -0.3215778 -0.26113528 -0.17354749 0.07810221 -0.49148545 0.27419534 0.31931487 -0.51205766 -0.31583026 -0.406819 -0.7219939 -0.8122962 -0.31054178 0.22185239 0.7383359 -0.12513947 0.56454575 -0.02881655 0.5640916 0.94106376 0.74247694 -0.18374859 0.44537565 0.24032862 -0.34684506 -0.37452555 -0.5235548 0.5578315 0.13128765 0.494206
60 -0.0638916 0.52159756 0.22579792 -0.6404037 -0.59505224 -1.2526325 0.385534 0.35215208 1.2339692 0.45521986 0.37671623 0.110664904 0.3264045 0.026525717 0.4267786 -0.04876841 0.12931412 -1.0370841 -0.37651545 -0.6773258 0.3698178 -0.43952605 0.59976393 0.13814858 0.5526142 0.18395522 0.5762691 -0.24221362 -0.13512705 -0.32895038 -0.4827638 -0.595934 0.05492403 0.26988834 0.020422334 -0.7881093 -1.1021502 -0.044863135 0.0013946336 1.051392 0.2828032 0.031839903 -0.37852126 0.13523002 -0.115993895 -0.18531476 -0.6008738 0.62898725 0.5369084 0.49467766 -0.2101978 0.36056465 -0.08379742 0.89661664 0.31869864 -0.21947001 0.47208542 -0.007617404 0.37153602 -0.30382818 -0.2754535 0.03750706 0.1248151 -0.36897594
3 -0.4251743 0.8656862 -0.060240954 0.33281085 -0.18910557 -1.364966 0.116399035 -0.59935397 0.8054297 0.9332565 0.06551509 0.07760491 -0.3310528 -0.7748596 0.47277364 0.0063322587 -0.7222888 -0.557188 -0.53110206 -0.5800534 0.32281545 -0.052669067 -0.5210757 0.047620866 -0.9410459 0.41813725 -0.22224054 -0.22698817 -0.6059705 0.49801406 -0.3229879 -0.23770241 -0.2502982 0.042281315 -0.34660208 -0.66736853 -0.1646138 0.87133783 -0.3946386 0.44272012 0.4259918 -0.04702649 -0.14879987 0.29425225 0.19113791 -0.90016055 -0.6355801 0.4172401 0.34014884 -0.024868323 0.49273247 -0.13208653 0.3037368 0.94941807 -0.053870786 -0.60645545 -0.14651999 0.15144573 0.09847955 -0.5399547 0.2903882 -0.13412262 -0.3972639 0.08148874
165 -0.38061732 0.37761223 -0.020218994 0.065461375 -0.051550064 -0.71367735 -0.22505733 0.28267583 0.7963489 0.12983592 0.038849488 0.17198692 -0.69299865 0.2226761 0.20578428 0.26308522 -0.019977694 -0.18859999 -0.44773218 0.3438121 0.69356686 0.22963607 0.07068423 -0.31017125 0.4472222 -0.34725174 -0.5157419 -0.046930984 0.15254472 0.8810689 0.2627014 -0.7557533 -0.0025694964 0.111394405 -0.18422168 -0.81063426 -0.26764685 -0.22224812 -0.25957114 0.45568156 0.13696933 -0.15406261 0.09717908 0.4633069 0.23461027 0.024644451 0.13825753 0.57329 0.3076598 0.48443627 -0.056234322 -0.19440773 -0.14785907 1.0589672 -0.39310354 -0.34572107 0.12016777 0.118592806 -0.21429884 -0.3211538 -0.02860563 0.06422779 0.19367516 0.7374744
178 -0.106689475 0.11147855 -0.3075033 0.17254244 -0.63164425 -0.49362296 -0.0824764 0.339946 0.40554425 -0.08654507 -0.19173127 -0.05738868 0.36521137 0.43351915 0.49124894 0.18991919 -0.06077266 0.08075945 -0.5285743 -0.35197088 -0.0255695 0.42157686 0.022837844 0.60442674 -0.06882298 0.2167387 -0.85474557 0.111366175 -0.34615996 0.24977224 -0.31593195 -0.17474797 0.06670525 0.07680227 -0.058062244 0.07657766 -0.313848 0.02623492 -0.16581185 0.15772976 0.5017166 0.39425617 0.25405034 -0.45784393 -0.31059483 -0.7609516 -0.13243583 0.3323345 -0.01741524 0.45856723 -0.33715743 0.31637302 -0.34664977 0.99786824 0.16462448 -0.3276919 0.420157 0.0021009743 -0.2874482 0.075733855 0.40423447 0.07653365 -0.1416549 -0.25999448
17 0.16039863 -0.054928057 -0.5943997 -0.042350676 0.25456214 -1.2425642 -0.37474984 0.17744076 0.68787533 0.5855824 0.22516596 -0.9046212 0.53709686 0.4813232 0.49121046 0.794857 -0.2095478 0.15156378 -0.79628325 -0.08840027 0.23782785 0.17471643 0.6720008 -0.27613896 0.03130941 0.0728044 0.38726375 -0.14447777 0.06590626 0.03643509 -0.02416224 -0.6553266 -0.21678247 -0.12061819 -0.3218502 -0.52067345 0.07504373 0.36453882 -0.22665212 0.42144588 0.41166967 -0.43841633 -0.028964847 -0.45830142 0.21261908 -0.65418434 -0.9476602 0.3554218 0.8575667 -0.0460621 0.24373758 -0.09215535 -0.5497621 0.30190983 0.48759538 -0.50447047 0.36638826 0.19970359 -0.37281173 -0.76208675 0.12626012 0.022504402 -0.21848205 0.74236333
184 0.057034027 0.24572742 -0.2607917 0.39761814 -0.60492736 -0.28167242 0.012541859 0.3545818 0.5382365 0.08417111 -0.27479485 -0.25223514 0.25345996 0.40136868 0.42159984 0.19256951 0.1994298 -0.15306666 -0.410789 -0.33928624 0.15550236 0.23333977 0.017361086 0.6727405 -0.10067771 0.11305505 -0.6514481 0.19738317 -0.2795007 0.44826972 -0.26064047 0.023722531 0.15729724 0.026083935 -0.09168776 0.29343113 -0.28060678 0.20867743 -0.14370474 -0.056398023 0.4341659 0.38969418 0.01907482 -0.51913065 -0.15381294 -0.727272 -0.17539012 0.40997186 0.16820139 0.49855697 -0.39305046 0.2747996 -0.46935472 0.96680653 0.11061332 -0.4435644 0.36991692 -0.046349443 -0.43241245 -0.03875522 0.36850095 0.0696463 -0.06434671 -0.31939122
145 -0.054491706 -0.18732382 -0.22630855 0.027045615 0.1764177 -0.8433521 0.63935906 0.2579059 0.82089436 0.6607669 -0.056005847 0.26341864 0.01608976 -1.2004602 -0.16250901 0.13819182 0.8817746 0.09636249 -0.91680026 0.28343168 0.89988834 0.26756617 0.7688776 -0.3916915 -0.40523818 0.06734573 -0.18391077 -0.1591675 -0.051969428 -0.09471655 -0.09502194 -0.63618886 -0.8624829 0.89136636 -0.6715538 -0.5908832 -0.26113153 0.10391626 -0.47570375 0.5019699 1.1967062 -0.1919005 0.055691265 -0.3786061 -0.3214274 -0.81537515 -0.4256706 0.9494745 -0.059831798 0.4525694 -0.02359646 -0.20489083 -0.023708956 0.751494 0.08876786 -0.011347545 0.5475812 -0.1904309 -0.25730366 -0.13849428 0.021957038 0.065008745 -0.2778459 -0.18350312
144 -0.120264396 -0.13920729 -0.23744409 0.015837941 0.18255687 -0.81028515 0.63714445 0.3007316 0.8301519 0.6270239 -0.05198234 0.2689086 0.10159442 -1.2015907 -0.16987468 0.1317121 0.8092123 0.14214818 -0.9260178 0.2849531 0.8371691 0.26772627 0.72932464 -0.4161682 -0.37728846 0.07457026 -0.17437826 -0.18062297 -0.081455804 -0.039057784 -0.03841778 -0.6145507 -0.82090074 0.891539 -0.7117265 -0.5905955 -0.26680398 0.07681418 -0.5361526 0.5461397 1.2109213 -0.22127801 0.024462331 -0.40652144 -0.29713967 -0.77281064 -0.41076806 1.0224724 -0.04907937 0.47666466 0.029716235 -0.22782062 0.028744807 0.7324269 0.11631771 -0.015559362 0.6352509 -0.17707181 -0.28895444 -0.12421243 0.035023127 0.05431565 -0.27228567 -0.22120304
99 0.093453065 -0.18244112 -0.5437652 -0.08421539 0.41260412 -1.3128128 -0.2875467 0.017904839 0.9271676 0.49392566 0.2900908 -0.7258629 0.44988853 0.69959503 0.3910675 1.0058459 -0.30802512 0.03449754 -0.8278925 -0.08665149 0.2240469 0.055076797 0.6358232 -0.3642749 -0.0030455503 -0.05980832 0.30162644 -0.009598325 -0.17620419 0.09253421 -0.10613798 -0.7046096 -0.12083941 -0.09617665 -0.45907435 -0.4470745 0.098767646 0.102925256 -0.1491272 0.38218397 0.41391173 -0.29568034 -0.0193622 -0.48613393 0.23638953 -0.92662555 -0.88739145 0.26548976 0.7858323 -0.005637538 0.24730076 -0.097983174 -0.48359334 0.25559917 0.4327648 -0.30826306 0.1808395 0.09153513 -0.26336932 -0.76430744 -0.07761054 0.00090304884 -0.41848907 0.56589687
166 -0.22874698 0.39223874 -0.03435839 0.009550079 0.06484086 -0.6260918 -0.29146838 0.3162274 0.8471453 0.031310342 0.09225812 0.12985797 -0.68191737 0.13367246 0.26434854 0.24095738 0.04422604 -0.14178814 -0.506931 0.40969655 0.64767724 0.21763003 0.009321377 -0.27227983 0.34031588 -0.41426292 -0.6265626 -0.20416547 0.24212784 0.7536049 0.26935318 -0.7616968 -0.0043166582 0.07498174 -0.15676403 -0.69686633 -0.32729605 -0.21978694 -0.25274226 0.5821547 0.07736966 -0.040167406 0.053006418 0.52990884 0.4543997 -0.06332139 0.08509916 0.6586927 0.38258752 0.3713775 -0.14957169 -0.18475582 -0.03562914 1.1751437 -0.47311187 -0.3335569 0.030575056 0.22184746 -0.26296508 -0.38189253 -0.20595801 0.2274251 0.091627814 0.69164294
74 -0.36359262 0.1091937 -0.3669411 -0.2800135 0.16593353 -0.40975106 -0.18271361 -0.40021452 0.2485069 0.19073102 -0.056469243 -0.028055802 -0.6839814 0.01317272 -0.011345781 0.0524958 0.14492874 -0.7034664 -0.80255157 0.11686562 0.10050999 0.066165544 0.20506912 -0.0108619565 0.07354897 0.0034754246 -0.24116077 -0.09620091 -0.1851761 -0.13272907 0.019700322 0.5369726 0.3429251 0.43238127 -0.41959223 -0.4016324 -0.57153666 0.23561704 -0.5428712 0.21891823 0.26559815 -0.54733324 -0.24497277 -0.35125056 -0.79043144 -0.7258706 -0.017006624 0.08463989 0.68063897 -0.23751599 0.30605188 0.15836842 0.47831225 0.82263196 0.69137174 -0.031983726 0.6151529 0.27630585 -0.22790161 -0.4334405 -0.5630163 0.40572116 0.18061943 0.39077038
16 0.10287737 0.017776212 -0.67340934 -0.12770084 0.3921029 -1.2684313 -0.3275248 0.18249813 0.75537 0.6258159 0.25706914 -0.9400532 0.5309838 0.49887702 0.46255794 0.871776 -0.26748958 0.11423832 -0.7472501 -0.013917232 0.2176525 0.106883876 0.6475652 -0.29802832 0.028139059 0.081452414 0.31632677 -0.11474807 0.071399085 0.05338711 0.012332852 -0.6082862 -0.21561219 -0.10044015 -0.31231403 -0.51526517 0.10148218 0.42137575 -0.25683975 0.3488546 0.33088595 -0.34331396 0.02099003 -0.44299716 0.20241429 -0.6558759 -0.99738294 0.25942838 0.84893996 0.063948974 0.15275511 -0.060292885 -0.48658308 0.36628342 0.49059772 -0.48507416 0.298074 0.14206453 -0.31918588 -0.75221676 0.09488621 0.05831941 -0.2513309 0.71373683
188 0.10481262 0.22099352 -0.2900782 0.0674925 -0.16805066 -0.2582482 -0.14932717 0.26908192 0.19960923 0.39899334 -0.06304384 -0.13748859 0.41292313 0.0031934138 -0.361355 -0.061687928 0.5587814 -0.5118938 0.09021141 -0.3333207 0.06751849 -0.19352965 -0.13157192 0.04544666 0.1648959 0.28352386 -0.8306318 0.004215755 0.030701919 0.6489795 -0.3778943 -0.4900086 0.35507706 -0.2497931 -0.17963633 0.017610125 -0.45023483 0.13480394 -0.0781324 0.08039879 0.105027355 -0.46972233 -0.15467268 -0.23799044 0.10724427 -1.334154 -0.5646363 0.7689141 -0.102803946 0.16117461 -0.18421413 -0.32698312 -0.16742116 0.59453696 0.53455555 -0.08267556 -0.061113495 -0.26016352 -0.22856496 -0.22946353 0.28258774 -0.37816402 0.36079568 0.08643456
180 -0.3342796 0.104793794 -0.09868934 0.26066858 -0.8087466 -0.29833925 -0.35331672 0.3716012 0.7538931 -0.08253842 -0.37543067 -0.07004661 0.3335578 0.28370225 0.3618407 0.26171494 -0.4037072 0.11804132 -0.25490552 -0.3608193 -0.16206302 0.1670149 0.3842833 0.8225799 0.024786934 0.10020581 -0.7516584 -0.0749404 -0.6225197 -0.1034415 -0.09235429 -0.15725873 -0.21333884 0.17557046 -0.3663735 -0.0844041 -0.29189646 -0.059898492 -0.56081516 -0.110298686 0.5267968 0.13236104 0.08537356 -0.32814628 -0.26380163 -0.6478104 -0.37634873 0.07468839 -0.06031866 0.52099425 -0.17375547 0.23267448 -0.41170427 1.2259394 -0.10098312 -0.43094182 0.24838313 0.5693971 -0.4268151 -0.36778757 0.47353777 0.30307177 0.09897865 -0.30367884
120 -0.26058373 -0.1165336 0.039889228 0.27581596 0.3357583 -0.25980514 -0.36420664 -0.566831 0.66205573 0.025235502 -0.4495221 0.05998883 -0.82348746 0.29489315 0.16328795 -0.18009834 -0.02008496 -0.28535348 -0.55405104 -0.124453224 0.27501893 -0.13055101 0.388618 0.37950236 0.19541462 0.35850865 -0.24975729 -0.23742174 -0.060626943 -0.0051918863 0.30000892 0.11577585 0.05837502 0.23031548 0.12747225 -0.7522028 -0.60688263 0.89734405 -0.47246742 0.31929085 0.30663353 -0.5746691 0.37979063 -0.91119206 -0.3320471 -0.62822735 -0.26792473 0.4449643 0.8068886 0.2343692 0.089988664 -0.25838813 0.31885818 0.63245183 0.6400227 0.4128972 0.39556143 0.19195573 0.16963081 -0.091483936 -0.6609507 0.24055856 0.17337392 0.30563766
64 -0.28889975 0.6598092 0.81832224 -0.84210104 -0.90329045 -0.29479492 0.32515994 -0.15151927 0.3942447 1.2202771 -0.24661188 -0.40485904 -0.31039256 -0.5275483 0.26832536 0.6019691 -0.40614083 0.5632409 -1.8339137 -0.43407467 1.2144485 -0.943131 0.033549257 -0.2697076 0.6455526 -0.19094916 -0.3055924 0.1861659 -0.3916568 -0.43182632 -0.48963994 -1.0754232 -0.34762356 0.08672983 -0.30856755 0.0074495533 -1.1306815 0.81425 -1.6088928 0.07973506 0.94261825 -0.3683436 -0.8770216 0.08056701 -0.06842362 0.16040151 -1.0624969 1.2837455 1.0103528 0.4682787 -0.20857134 -0.3924999 -0.54233813 1.1039791 0.6709384 -0.6248814 -0.30696297 -0.30957982 -0.5438277 -0.33459812 0.2699351 -0.8647591 -0.59639245 0.65419424
173 -0.041525103 0.26224962 -0.28087252 0.025250275 -0.39423868 -0.26870027 -0.032778054 0.038298734 0.11938529 0.3729793 0.11816778 -0.18834217 0.4136078 0.011271875 -0.44807905 0.070231415 0.5897757 -0.39278176 0.043540023 -0.36848995 0.03354816 -0.21727005 0.07698936 0.105037466 0.21807972 0.060087413 -0.7973828 -0.10304576 -0.1777029 0.665544 -0.33522093 -0.4219622 0.24758165 -0.066982195 -0.22066407 -0.15505224 -0.32515094 0.3054233 0.21706218 -0.1345005 0.08523414 -0.32817256 -0.14948654 -0.2893993 0.157865 -1.2388808 -0.5570691 0.81292725 -0.0946506 0.20108135 -0.39354742 -0.30228254 -0.14015643 0.6938402 0.5719638 0.004698643 0.027049562 -0.20601045 -0.18865408 -0.18810208 0.30606198 -0.46730945 0.40001887 0.2139268
52 0.18300234 1.0010759 0.07011122 0.08687421 -0.43973273 -1.0150237 -0.35580048 0.56515753 0.876284 0.2606077 0.4836183 0.21214612 -0.22385415 -0.17208867 0.40589935 -0.57630795 -0.16117571 0.36983633 -0.74249077 0.46053106 0.5869344 -0.45181528 0.77094346 -0.2119643 0.5735244 0.08727687 -0.099221006 -0.16678636 -0.5500923 0.17720209 -0.3049481 -0.092696846 -0.3175663 -0.11169864 -0.51716495 -0.095230006 0.19691564 0.18603577 -0.665169 0.3766258 0.12486887 -0.38494077 0.24357064 -0.643175 0.28919855 -0.6906113 -0.025519392 0.09027037 0.18189953 -0.22180344 0.15305828 0.37444383 0.3683084 0.6321243 0.6959407 -0.23019832 -0.3364996 -0.3678794 -0.24100871 -0.07974464 -0.08385794 -0.2412808 0.29509676 -0.12217972
54 0.39677584 0.6479238 0.38006264 0.19562595 -0.5293817 -1.0063294 -0.47652206 0.35356906 0.4198844 0.5927922 0.2700612 0.050550602 -0.41982856 0.09194474 -0.04898205 -0.774007 -0.39753893 0.5725541 -0.52248144 0.3780422 0.8028651 -0.37964672 0.2747176 -0.19097845 0.2078702 -0.30450878 -0.18806474 -0.0072839055 -0.2554017 0.20021947 -0.37067002 -0.1954485 -0.12827568 0.30470002 -0.58217186 -0.39586225 0.08754312 -0.1626783 -0.16773409 0.33276764 0.33530366 -0.29574943 0.08846342 -0.27432978 0.49368337 -0.8633042 -0.7168367 -0.228398 0.6369924 0.17643985 -0.33118305 0.12825808 0.4145515 0.67059207 0.7808727 -0.038483124 0.42779383 -0.5580983 0.26752862 -0.43734583 0.3184583 0.67086834 0.0044145384 -0.3549799
177 0.12322105 0.19098952 -0.21992637 0.15049975 -0.53624976 -0.49316454 -0.062639 0.31159264 0.3601571 -0.13188782 -0.33425015 -0.112076595 0.28442818 0.37647298 0.42992374 0.25810272 0.19045326 -0.08353986 -0.34886664 -0.60676664 0.01820711 0.22372094 -0.009193359 0.6567335 0.0048947176 0.06895344 -0.8817486 0.15867332 -0.2072695 0.22164871 -0.34572527 -0.114729226 0.09527563 -0.093806446 -0.16894935 0.004813341 -0.1444409 0.25988564 -0.27649018 0.024471026 0.45398176 0.40698087 0.12534797 -0.39280355 -0.25360408 -0.82725054 -0.030835649 0.37634382 0.19057424 0.55325174 -0.44407573 0.21629083 -0.27453864 0.8734894 0.037519455 -0.25696558 0.4115813 -0.20233281 -0.60803944 -0.10174239 0.45560026 0.05753544 -0.15077254 -0.35038012
4 0.3577123 0.69031537 0.27801493 0.12219168 -0.43215278 -1.0258725 -0.29788244 0.6488143 0.8414661 0.47561955 0.37069908 0.29162163 -0.43520078 -0.14348601 0.20321316 -0.56173766 -0.2557198 0.34288868 -0.5648068 0.4981502 0.55149835 -0.3178789 0.8138027 -0.13079001 0.62649804 0.10338411 -0.19764556 -0.07804231 -0.4563581 0.100639045 -0.46792233 0.0018696653 -0.22859816 -0.019222774 -0.43248513 -0.20849425 0.4220782 0.24494983 -0.44050118 0.5172622 0.25247318 -0.10644324 -0.028065592 -0.5962331 0.26101634 -0.6831221 -0.29706103 -0.020286858 0.350997 -0.26392677 -0.11428516 0.2649575 0.61782604 0.625295 0.5315155 -0.30105576 -0.15952235 -0.3122626 -0.26448277 -0.17707805 0.22388794 -0.2681699 0.31475237 0.030725665
5 0.39730713 0.69734645 0.18801899 -0.012891188 -0.4644483 -1.0406588 -0.59417546 0.5294796 0.81774044 0.46999285 0.21887152 0.32829592 -0.45488808 -0.08895771 0.20913267 -0.60417724 -0.10053977 0.28078791 -0.6664273 0.44076693 0.62012035 -0.3540712 0.7470719 -0.16118951 0.58894235 0.06540204 0.0076970235 -0.21976815 -0.60153735 0.12786484 -0.54896426 -0.11732851 -0.28077474 0.014210343 -0.4879587 -0.14807242 0.37038523 0.25392106 -0.5285704 0.42730287 0.21669623 -0.16620114 0.11803912 -0.5270769 0.2841427 -0.7610898 -0.22857697 0.014109649 0.30616564 -0.3426835 -0.13946642 0.29185995 0.4762734 0.5695476 0.42916605 -0.30297768 -0.16695273 -0.30369836 -0.25650424 -0.07966391 0.18043627 -0.15233856 0.36995968 -0.039505314
174 0.15587331 0.11135846 -0.3599867 0.08111482 -0.49864173 -0.2593637 -0.3654795 -0.006403358 0.31310692 0.21014355 0.0665985 -0.11268032 0.41106525 -0.07796354 -0.41041443 0.1314714 0.4605396 -0.35692453 0.033714786 -0.33745354 -0.021160303 -0.07415466 -0.030508574 0.23465116 0.17382005 -0.16124412 -0.7932037 -0.113706335 0.001563034 0.4419094 -0.13420573 -0.23141895 0.15524781 -0.25658092 -0.012364873 -0.1556569 -0.49520373 0.08547652 0.022827536 -0.056562 0.10363687 -0.16292848 -0.18372945 -0.19971482 0.20065919 -1.2888484 -0.6481277 0.7924257 -0.19968899 0.21178569 -0.22144035 -0.16533436 -0.173952 0.832805 0.5452331 -0.13967955 0.05609959 -0.32143512 -0.29716772 -0.08355814 0.38122803 -0.54189867 0.30220073 -0.02691985
100 0.09519004 -0.1373933 -0.5184778 -0.12995145 0.36681348 -1.3202066 -0.37027714 0.005786763 0.90060264 0.5410356 0.3095014 -0.70363444 0.5243181 0.70395565 0.42175862 0.87329566 -0.21753754 0.04122059 -0.8040292 -0.0990908 0.20633844 0.066317484 0.6438591 -0.41223687 -0.098591655 -0.11745377 0.44836667 -0.030319838 -0.14489107 0.08952309 -0.029466558 -0.76888835 -0.1317466 -0.008417974 -0.47682822 -0.46482623 0.06295034 0.15268554 -0.129543 0.29214856 0.40696907 -0.3042584 -0.042456046 -0.55894136 0.15129901 -0.90175253 -0.8745405 0.24970195 0.75280684 0.07299106 0.20005636 -0.16547124 -0.4773862 0.30236363 0.44105792 -0.4594586 0.097900644 0.16281515 -0.35145155 -0.7170351 -0.03337767 0.0788528 -0.3678771 0.5861401
190 -0.19537851 0.2716931 -0.2698339 -0.31574333 -0.074964575 -0.5142573 0.0034588126 0.156612 -0.026574522 0.32110474 -0.07349932 -0.15977173 0.36260062 0.134097 -0.4943242 -0.2671371 0.7758192 -0.3182151 0.04561042 -0.28974032 0.35938525 -0.33114165 -0.080612585 -0.040045474 0.036337152 0.20097515 -0.91799957 0.20031978 0.14709225 0.6551108 -0.41189298 -0.67079836 0.11196927 -0.06374696 -0.027450442 -0.50193113 -0.22548187 0.25772852 -0.16920424 0.25179133 0.0903588 -0.28837502 -0.33930174 -0.08927288 0.146104 -1.3079727 -0.6686429 0.52919215 0.1992863 0.08031814 -0.24353567 0.07827312 -0.28437907 0.5981136 0.7204283 0.08186413 -0.5038221 0.077732794 -0.17382132 -0.10555698 0.0035732863 -0.55363846 0.2608884 0.09566825
187 0.22323154 0.30461404 -0.34884444 0.04574459 -0.35908803 -0.4075525 -0.17114237 0.012742646 0.23560931 0.43226364 -0.08807952 -0.20339398 0.32696325 0.11665751 -0.4575104 0.18718708 0.4785531 -0.39612833 0.084640376 -0.33926144 0.013981282 -0.09506067 -0.059137028 0.10816811 0.2586668 0.17175189 -0.9075377 0.045682594 0.1413681 0.4765016 -0.054457545 -0.24851823 0.19718744 -0.17139252 -0.07568618 -0.056953553 -0.51685387 0.14493234 -0.19662195 0.26699603 -0.11139754 -0.23051316 -0.20557077 -0.28361985 0.025985766 -1.3097526 -0.6642391 0.6452302 -0.38967252 0.26004776 -0.29464582 -0.2014902 -0.3097776 0.6980581 0.4166026 -0.12367332 -0.090063 -0.39014813 -0.34107226 -0.064384975 0.34713006 -0.368719 0.30502132 -0.08486481
189 -0.0052105305 0.37853408 -0.2542658 -0.12782726 -0.14678325 -0.25394282 -0.18650961 0.20483267 -0.052938778 0.43578726 -0.19274928 -0.09281967 0.4675392 0.111949526 -0.44404656 -0.13786282 0.67357224 -0.4636533 -0.009671799 -0.36940947 0.24638493 -0.19576326 -0.06843763 0.0022241275 0.17543224 0.32830545 -0.99174255 -0.08343902 0.0023569132 0.5744158 -0.38073897 -0.65179217 0.09057941 -0.20803972 -0.16764028 -0.32117397 -0.16759509 0.23708396 0.060235213 0.23536253 0.022855463 -0.37342665 -0.3066475 -0.22943473 0.09043729 -1.1556838 -0.6438891 0.71842307 -0.028543582 0.1662069 -0.2145976 -0.09612095 -0.27745497 0.6129116 0.7119903 -0.2004465 -0.13677746 0.0076413974 -0.10171593 -0.043966793 0.1440337 -0.36793894 0.46270445 0.20865305
172 0.049429663 0.22268407 -0.4072765 -0.33453423 -0.17355895 -0.23115848 0.024502536 0.10074763 0.1780524 0.32291588 0.04284701 0.028679023 0.43437997 0.07291112 -0.54270923 -0.103011146 0.5781085 -0.23488314 0.01636904 -0.36325824 -0.014066161 -0.21157664 0.08806566 0.1685087 0.048116174 0.16733968 -0.83086395 -0.12810573 -0.10547658 0.81782144 -0.40486434 -0.70065963 0.1655943 -0.07608414 -0.17082971 -0.24899751 -0.17543909 0.1798627 0.12717529 -0.04742976 0.0566301 -0.44368184 -0.28169474 -0.09940898 0.13556331 -1.2095113 -0.5457802 0.7034217 0.063048124 0.22319368 -0.33807385 -0.1047779 -0.06720089 0.7811858 0.7911685 -0.07428189 -0.2805052 0.0010496133 -0.10683031 -0.17971009 0.07065367 -0.37100267 0.31776223 0.15495718
121 -0.22821362 0.013638146 -3.2439715e-05 0.07623386 0.35047355 -0.35828876 -0.23936196 -0.62225825 0.57445455 0.034764305 -0.4153027 0.17343837 -0.7361716 0.27715063 0.20734505 -0.19472791 0.025121579 -0.39850825 -0.52960366 0.06719966 0.31180328 0.020852137 0.37222415 0.38668376 0.039755844 0.27796495 -0.171583 -0.19801614 -0.09528817 -0.01941829 0.2486169 0.034767065 0.05197541 0.16291907 0.2401533 -0.6317371 -0.6765917 0.795859 -0.51241845 0.17701286 0.30591577 -0.6429356 0.32976523 -0.8568941 -0.37253475 -0.7455867 -0.22111185 0.24736619 0.8497825 0.25999638 0.09782518 -0.23151454 0.35904047 0.587651 0.5578462 0.4025805 0.4528979 0.2292376 0.02748902 -0.13337925 -0.6893444 0.28468797 0.32850873 0.25906208
171 -0.0011575527 0.1986269 -0.09824452 -0.34418324 -0.08195196 -0.21313094 -0.109011814 0.20196305 0.0006937663 0.46530068 0.076450646 -0.15432712 0.40241495 0.13389152 -0.49602175 -0.15347028 0.70282507 -0.31783396 0.020443931 -0.475312 0.2661114 -0.14748146 0.13838372 0.14946611 -0.046736266 0.020559732 -0.76030004 0.0020689222 -0.05996677 0.85516846 -0.46696535 -0.5106254 0.030649066 -0.1670412 0.040911354 -0.5861031 0.047829617 0.16457127 -0.053691633 0.35179177 0.15804495 -0.4519485 -0.2743695 0.008001782 0.07635251 -1.3438188 -0.5175006 0.64293337 0.054912433 0.1732633 -0.15235543 0.10257933 -0.26412898 0.7754381 0.7937278 0.10451675 -0.2975859 0.10991664 -0.08729712 -0.060464278 0.055003494 -0.47922882 0.25028747 0.13705438
55 0.3710649 0.54573184 0.30748057 0.3207713 -0.5181445 -1.0607523 -0.50746334 0.38405943 0.47667375 0.65262973 0.33816078 0.058411032 -0.44400245 0.04518068 -0.063982405 -0.80933386 -0.39022875 0.56321985 -0.44434896 0.4486042 0.7660014 -0.33352944 0.23511478 -0.13034858 0.23443092 -0.25866666 -0.21217582 -0.08258663 -0.21531677 0.21475561 -0.38246858 -0.2763256 -0.08044806 0.38144162 -0.55695957 -0.47614822 -0.0076660276 -0.13315119 -0.2625817 0.3481685 0.304487 -0.35464942 0.095125474 -0.25871414 0.42246717 -0.844825 -0.63465905 -0.248372 0.6186371 0.079788305 -0.3106466 0.3057883 0.36930335 0.48513103 0.7886092 -0.062290154 0.45522287 -0.43874484 0.15273963 -0.41061547 0.4371069 0.645386 0.093710266 -0.36965793
41 -0.09105295 0.43318263 0.31677938 -0.16800818 -0.24721669 -0.9003616 -0.1084907 0.46017528 0.28233045 0.10282332 -0.49252957 -0.14008372 -0.34950417 -0.4014181 0.44070196 0.6250309 0.04707052 -0.26127797 -0.39212528 0.11202314 0.56226367 -0.798953 -0.026781153 0.62354887 -0.034963597 0.5261568 0.18396701 -0.14883429 -0.51390976 0.39477456 0.8969606 -0.340141 -0.6757447 0.4929641 -0.23062305 -0.61454666 -0.42093727 -0.7149654 -0.1787234 0.35795268 0.4378173 0.10380289 0.2621992 -0.10579326 -0.24910885 -1.1186723 -0.47753918 0.522688 0.4012456 0.27572712 -0.51421946 0.46571368 0.3189661 0.22081046 0.8038288 -0.56947625 0.08209611 0.009860929 -0.11467204 -0.74247515 -0.007725839 -0.39773062 -0.12979794 0.75428873
47 0.40885642 0.6836887 0.1518322 0.078637786 -0.40005618 -1.1101905 -0.29215398 0.4796961 0.6137455 0.7351529 0.14374913 0.4169584 -0.4335101 0.1417305 0.03740191 -0.6427584 -0.37206736 0.37994114 -0.35806137 0.44483462 0.6153173 -0.4115526 0.5306318 -0.25249407 0.5791438 -0.18254842 -0.15458 -0.17842218 -0.36780527 0.20147248 -0.58198863 0.046492133 -0.35526624 -0.042689256 -0.5690832 -0.16453262 0.23434985 -0.041268706 -0.48490474 0.51778805 0.4597303 -0.13326912 0.2042438 -0.72165024 0.34775597 -0.77744347 -0.41701442 0.03669221 0.45669892 -0.14811464 -0.16380012 0.38516003 0.6062813 0.5469135 0.3826469 -0.2932113 0.08043564 -0.12717357 -0.0607797 -0.2384898 0.17213377 -0.103319086 0.3006927 -0.07822629
191 -0.1827178 0.13820793 -0.25888413 -0.27627528 -0.09599014 -0.5157886 0.07624623 0.29230204 -0.11964302 0.36055407 -0.13347904 -0.021519074 0.28511548 0.15404803 -0.6362006 -0.25127578 0.7038009 -0.24245535 -0.113760695 -0.33112106 0.33186156 -0.4174637 0.02821149 -0.12528841 -0.06472637 0.13901632 -0.7084264 -0.059530575 -0.089541614 0.9999801 -0.24947777 -0.41711575 0.20550264 -0.020743119 0.09395908 -0.58502936 -0.07886942 0.3189303 -0.31078583 0.41701752 0.11071065 -0.36968213 -0.51870346 -0.03723719 0.24069807 -1.1297941 -0.6815441 0.58142775 0.31312454 0.042756766 -0.27666464 -0.06525489 -0.53461474 0.6483568 0.8551771 0.069556184 -0.30495024 0.0965114 -0.2334293 -0.15547965 -0.062203895 -0.7057941 0.28493518 -0.047040697
134 -0.2860202 0.4447816 -0.2985261 -0.05564698 -0.10171169 -0.46951765 0.12598963 0.2702669 0.5808174 0.38266942 0.4605753 0.067038454 -0.4340147 0.2900115 0.26464573 -0.37349734 0.68432903 -0.37333027 -0.8089405 -0.41603568 0.25039473 -0.07748368 0.9918945 0.1169923 -0.080020115 0.20909797 -0.5142517 0.42118984 -0.46522787 0.3416061 0.34479383 -0.21225522 -0.30242985 -0.23197146 -0.4123501 -0.7029012 -0.37846518 -0.16220632 -0.49563232 0.27883473 -0.08929368 0.039989237 0.73240507 0.3021573 0.1823815 -0.7132756 -0.96283543 0.2533492 0.2674809 -0.10652739 -0.08930552 -0.52602315 0.2950333 0.0091465255 0.22370227 -0.9192244 0.7435863 0.6170333 -0.05090087 -0.37122732 0.055653498 0.023357542 -0.22171701 -0.28385133
164 -0.4229505 0.35560834 -0.088114135 0.043049954 0.011391022 -0.65476006 -0.1085127 0.22401445 0.83791924 0.021789838 -0.120891996 0.3098694 -0.58342785 0.29351264 0.24294627 0.008592437 -0.06596368 -0.26044938 -0.32887432 0.28220987 0.88227814 0.29534024 0.21480301 -0.35436505 0.63836986 -0.17543772 -0.2573788 -0.18195947 0.11203244 1.0041121 0.1782863 -0.60317737 0.09694125 0.17894885 -0.24731106 -0.7869303 -0.35679212 -0.17909302 -0.23569639 0.376332 0.15227337 -0.34389323 0.20115753 0.5497725 0.078728944 -0.2417248 0.13901733 0.37623042 0.24677522 0.42011932 -0.1092208 -0.30214217 -0.34578288 0.9718942 -0.48183137 -0.40413523 0.12671779 -0.030369487 -0.18830663 -0.32227358 0.2531202 0.049910754 -0.15985395 0.81232333
142 0.091146775 0.04543188 -0.017813532 -0.2056221 0.23485754 -0.12869678 -0.24104005 -0.6487249 0.8240147 0.051753305 -0.5858728 0.12412892 -0.8506647 0.10633409 0.3494724 -0.48248395 -0.49488357 -0.31546947 -0.5064226 -0.07052243 0.080102414 0.20144914 0.54417187 0.36813277 0.06309342 0.26185662 -0.43306005 0.19226 -0.124225385 0.19489194 0.24369574 0.07848816 0.04868447 0.64139694 -0.039547592 -0.6998592 -0.5698356 0.72517186 -0.26370776 0.389102 0.05776362 -0.6885941 0.21155871 -0.8375413 -0.2405874 -0.8090342 -0.17057534 0.50846964 0.893889 0.4191127 0.1671944 -0.22016998 -0.043578032 0.25195783 0.69409496 0.08377555 0.5503671 0.153211 -0.009357912 -0.2545374 -0.8821686 0.009860739 0.37480605 0.31671682
119 -0.032307185 0.062935926 -0.10423007 -0.009847886 0.21769464 -0.42755792 -0.22270657 -0.37577403 0.28972456 0.17836769 -0.21926962 0.2764584 -0.4251174 0.42866033 -0.16187431 -0.2124712 0.044743434 -0.6780511 -0.8843899 0.15886594 0.09233543 0.34661892 0.10209312 0.28609252 0.34953278 0.07159054 -0.29179078 0.05185633 -0.3276386 -0.04867889 0.32459024 0.45113283 -0.17277211 0.48076504 0.068783805 -0.55438805 -0.6342948 0.41381663 -0.5638485 0.14177316 0.068238296 -0.42385128 -0.12880279 -0.5079147 -0.79251164 -0.6434709 -0.2579099 0.12953304 0.88810384 -0.21376613 0.22039796 -0.22057392 0.39153627 0.80031276 0.6206113 0.2668537 0.30072558 0.12264774 -0.03231037 -0.5031668 -0.7062794 0.3859522 0.090593405 0.44713047
122 0.2160026 -0.13842578 -0.12487835 -0.01202243 0.28960422 -0.36642188 -0.20811231 -0.67028 0.95452803 0.0166339 -0.41661173 -0.11368623 -0.6969622 0.32017934 0.08861029 -0.5518267 -0.10350724 -0.41764504 -0.4574214 0.15590036 0.19578846 -0.357369 0.17804945 0.38537 0.22585404 0.30538577 -0.2260608 -0.13139012 -0.26903147 0.25889787 0.30920455 -0.055539515 -0.32706964 0.34474102 -0.090744495 -0.5065423 -0.76772994 0.91238916 -0.21597141 0.57158804 0.28419283 -0.3930102 0.29389986 -0.6179417 -0.25295714 -0.64094526 -0.20390637 -0.05401606 0.68956184 0.4785154 0.3786465 -0.48145384 0.1724854 0.7349808 0.8700437 0.49005803 0.708673 0.50797766 -0.3437185 0.20826368 -0.6432895 0.10030981 0.05348929 0.4922215
133 -0.27933693 0.2662239 -0.27063268 0.027949585 -0.05079914 -0.58714575 0.18159665 0.298025 0.60621285 0.4621625 0.57352614 0.08291259 -0.5377778 0.2116561 0.258608 -0.42933643 0.6925579 -0.3963455 -0.71738786 -0.37218478 0.19135316 -0.024597479 0.8563538 0.18924566 -0.04906667 0.1974157 -0.58756286 0.45673218 -0.56122684 0.28734094 0.34833863 -0.19083516 -0.24304456 -0.25859764 -0.5008732 -0.81011856 -0.30493942 -0.2144045 -0.3318751 0.3372837 -0.103388965 0.03799799 0.7148077 0.24336763 0.11551787 -0.68499005 -0.92447597 0.15453783 0.33490896 -0.057585057 -0.0941699 -0.5558819 0.1480362 0.0027127794 0.25355572 -0.90336704 0.72717786 0.5679793 -0.15317555 -0.3443992 0.00058049505 -0.041305225 -0.13757963 -0.28077185
46 0.45200422 0.7928123 0.14346492 0.07927817 -0.47656578 -1.18021 -0.38284552 0.5894026 0.65164185 0.8041824 0.1634825 0.53354657 -0.43067527 0.060907077 0.08987144 -0.5908693 -0.23591411 0.44559473 -0.32990012 0.5428798 0.6776574 -0.33849457 0.5412982 -0.16876209 0.5584306 0.001696374 -0.019732457 -0.058992535 -0.42204568 0.2704198 -0.566222 -0.03772747 -0.13424718 0.1704213 -0.5605903 -0.16067885 0.16805725 0.10282218 -0.4564003 0.30243382 0.36605018 -0.12945525 0.09695796 -0.68898934 0.44533584 -0.7223129 -0.44421932 0.0012611856 0.36706948 -0.13365021 -0.1146734 0.32624188 0.5034096 0.45595467 0.4849834 -0.2624319 0.041510228 -0.003942246 -0.13954493 -0.17513439 0.09520678 0.1200022 0.24862401 -0.03514018
53 0.27101138 1.0510837 0.1582923 0.09376746 -0.24261737 -0.9615629 -0.22898908 0.6769017 0.9698809 0.32183155 0.45159397 0.33127552 -0.3268631 -0.07726858 0.36549097 -0.52889365 -0.12706235 0.35818747 -0.7477869 0.43131515 0.49640718 -0.49391803 0.74937487 -0.12595478 0.5008224 -0.039762676 -0.08457906 -0.15662795 -0.5098244 0.13359432 -0.31300595 -0.015925577 -0.30024746 -0.1629665 -0.516005 -0.12720609 0.3089994 0.21483065 -0.53072226 0.42010078 0.15586811 -0.33761027 0.17006533 -0.6343554 0.23595813 -0.73946404 -0.07043361 0.033846222 0.229694 -0.28072518 0.07567733 0.30899453 0.35949454 0.6937998 0.6454735 -0.2082302 -0.28653213 -0.43848386 -0.2551558 -0.121254385 0.027583156 -0.21456136 0.29153353 -0.14071418
70 -2.193174 1.0954503 0.30680677 -2.782836 -2.270853 -1.0841464 -1.8404678 0.8665381 1.2270681 1.1241103 -1.3402051 -1.8415663 -0.0037449303 -4.0847774 -3.7256038 1.4187121 1.8144195 1.3004133 -1.4892671 -3.2768855 4.613056 -0.8838429 -0.3525866 -1.2242957 -2.6200757 -1.2490144 0.22873934 2.1063447 -3.5108964 3.4219193 -1.9180123 -1.8690969 -1.6985472 1.2217518 -2.1118033 2.5122042 -2.496785 -0.5503412 -0.39392194 3.3496783 2.1328137 1.9959202 -2.163489 -3.1565845 0.15767123 -2.8820536 -1.245672 -0.04070503 6.0022545 -1.0706267 3.3292227 1.3487434 1.407928 3.1227086 -0.83752215 -1.7141695 -0.45592874 -2.4068873 5.130391 -0.94896555 0.46611944 -0.22390756 -0.22422017 -0.23828489
131 0.6272629 -0.5209392 0.3626998 -5.8656096 -4.4620075 -1.819729 1.4450155 -0.8340292 2.5194504 -2.1581063 -2.4932861 -1.7391491 0.48119727 0.24039634 0.005243668 1.4830189 -0.085406795 1.8050932 -3.6007004 -1.7457889 3.7092166 -2.7719395 0.47872734 -2.4541306 -0.20042065 -4.6714883 0.5515547 1.0739021 -0.41289687 2.985203 -2.6064115 -1.8743303 1.6633639 1.5634952 -3.03141 -0.94294953 -4.4857535 -0.8608754 -3.0342782 2.1915247 1.9773637 -0.30304506 -2.3096316 -5.4438176 -1.60358 -1.8949568 -1.308261 -0.6837576 1.001379 0.5783998 0.23605773 -2.769774 -1.1257172 1.8718033 -0.7540308 -1.6706779 -1.9699807 -1.5942088 2.2555661 1.553977 -2.6906972 1.7891203 0.7587866 0.8346153
34 0.8291102 -0.29832065 -0.6738725 -3.7134275 -4.5813684 -0.8082168 -0.53433937 0.057329427 0.27297363 -0.2537523 -2.9285855 -0.94895244 -2.8297894 -1.7466698 -0.6146832 2.7646902 -0.052685726 0.71733195 -2.3286996 -2.0505102 3.924452 -0.28699353 0.14508109 -3.5314932 -1.1464556 -0.43853024 -0.21358664 0.24230048 -0.33393255 0.83073163 -1.5239952 -1.3570435 1.2157445 0.79422426 -1.1733891 -0.32394984 -1.4991168 -0.69004196 -1.9634099 1.776137 1.5919399 0.4171792 -1.8994585 -1.3914276 -0.17416136 -0.14999649 -1.46484 -1.7280593 0.98946774 1.8460158 0.17030063 0.17325014 0.373322 3.4128003 -0.022530666 -0.712574 -0.61086893 -0.569753 1.8396173 -0.28058738 -1.0922265 -1.8022408 0.8857721 0.31115896
58 0.8215066 -0.34450307 -0.61838794 -3.7095387 -4.5436845 -0.73651886 -0.49646035 0.107322976 0.21199115 -0.29018947 -2.9194438 -1.0655961 -2.8792794 -1.5372846 -0.6324093 2.824 -0.13306738 0.67194897 -2.3225977 -1.9727716 3.9728622 -0.29815766 0.119575955 -3.4252424 -0.97193336 -0.4406252 -0.1832298 0.20203649 -0.41016126 0.88966 -1.4835188 -1.4098618 1.2883564 0.7172372 -1.1686982 -0.2616597 -1.5553716 -0.8178942 -2.0420732 1.7235817 1.4458191 0.4282211 -1.8918451 -1.3758976 -0.13442817 -0.17230104 -1.4691168 -1.7734298 1.0218122 1.8759753 0.08934387 0.3030689 0.3251391 3.418542 0.09353633 -0.74602 -0.6818977 -0.5814132 1.7918797 -0.2811511 -1.0803984 -1.8517336 0.9581434 0.38444638
161 0.83420765 -0.2972301 -0.62268126 -3.7499888 -4.5435786 -0.8111204 -0.5671171 0.057147834 0.25488853 -0.27636215 -2.9454556 -1.1139419 -2.9180167 -1.5596213 -0.62838745 2.826888 -0.1400777 0.6782046 -2.3308182 -2.0470853 3.987309 -0.29235166 0.10175332 -3.509229 -1.0201118 -0.3729553 -0.16730076 0.1716825 -0.3969529 0.8938669 -1.5215646 -1.4101802 1.3079712 0.71624833 -1.1365453 -0.2232027 -1.5100198 -0.7894258 -2.054996 1.7126794 1.4522828 0.45467213 -1.8616625 -1.3231736 -0.10617716 -0.14584357 -1.5221634 -1.8154094 1.0357466 1.8779871 0.12135956 0.34626484 0.31490386 3.4475706 0.09903712 -0.73082113 -0.6962791 -0.5916294 1.8475367 -0.31528047 -1.1149371 -1.8899933 0.9421948 0.4088787
65 0.7880855 2.1874866 -1.9240885 -5.1898446 -6.2756104 -2.7426834 -2.7424598 -0.67055595 1.9681532 0.20748249 -2.0509498 -1.1197585 -0.29271013 -1.7038683 -1.0840402 0.5242171 2.2620175 0.96095324 -2.2704031 -2.8114684 2.9536924 -1.0964714 -0.7598426 -3.434033 -4.0871196 -2.1680155 -0.45666283 -0.9021043 0.15153424 1.2934434 -0.06277789 -0.8954727 -2.1786945 -0.975338 -1.743003 0.38699058 -1.9634335 0.63815135 -2.2105188 3.7061925 1.336282 1.5081787 -3.5439637 -7.2031 -1.5995855 0.35205165 -1.1428392 0.3281644 1.1251745 0.48289487 2.717324 -0.7165978 -1.1005125 1.9462764 3.0618775 -1.78387 -1.654381 -1.5294874 1.6211978 -1.3409046 -0.1396837 -1.5556585 0.21181238 0.32529768
126 -1.0473403 1.7178789 2.4728918 -1.819508 -4.5812206 -1.5231234 -1.8566563 -0.34970295 0.34426668 1.7626845 -2.2261527 -3.1209912 0.45256418 -0.6662129 0.42299134 0.007044703 -0.88308305 1.5332255 -2.9980006 -4.2911944 3.4759047 -0.24030331 0.47738966 -2.5770438 0.90549767 -3.0272658 1.1139246 1.0781931 -2.6286757 2.4577918 -0.058828037 -1.5091842 -1.3126619 -1.222311 -1.8913542 2.077337 -3.0234387 -2.2185454 -0.37211126 -0.82019675 3.7082028 1.0152581 -6.8841867 -4.4237924 -1.4481506 -1.7436849 -1.5248226 1.3662102 3.5580587 2.492645 2.3695621 1.1889483 0.22258055 1.8784308 -0.23615357 -1.9522748 -0.44891334 -1.864302 0.8976847 -1.126218 -0.72937566 0.86078304 1.7151762 -0.31520462
50 -0.6189721 -2.074721 1.7339611 -3.2348146 -4.7919016 -2.5718172 -0.36161432 0.65543056 0.65448034 1.7824787 -0.73620445 -1.009888 -3.0518086 -1.4150996 -1.1585953 1.8814265 -0.6489609 3.198104 -0.37996182 -4.023095 6.074855 0.70271164 1.1319045 -3.9243958 -2.0061424 1.0748531 1.1918087 4.1137323 -0.2948267 4.357283 -1.2558001 -0.91297185 0.117091216 0.8232982 -0.5249525 0.2878468 -0.6988588 -0.22636883 0.30590355 3.8219748 3.0691173 1.67742 -6.0989623 -3.5787568 -0.93640846 0.1063136 -2.5118706 1.2980853 2.8619173 -0.050043985 2.1057832 -0.49187067 1.9148461 1.9293482 -1.7777886 -2.314028 -1.2092415 1.0519309 -1.3096554 0.95161676 0.14354764 0.60929507 0.18342155 0.620271
67 0.8392218 -0.30204296 -0.6609829 -3.7283056 -4.4962425 -0.7867474 -0.5566433 0.052603435 0.26453695 -0.29608086 -2.9384913 -1.1016093 -2.9231179 -1.5628381 -0.62325543 2.8425987 -0.18893306 0.68041736 -2.324926 -2.0567017 3.9758942 -0.30368903 0.090358265 -3.4891772 -1.022489 -0.357969 -0.1677307 0.19926248 -0.3890917 0.89798826 -1.5376477 -1.4093987 1.3140367 0.7366485 -1.113073 -0.25328785 -1.4996071 -0.7679452 -2.0707762 1.6865165 1.4751809 0.46855238 -1.8713214 -1.339533 -0.084802724 -0.15110995 -1.510905 -1.819632 1.0284923 1.8513441 0.10520937 0.33498567 0.29282147 3.4557066 0.09183447 -0.78460115 -0.72122216 -0.55919254 1.827366 -0.30379224 -1.098419 -1.8644924 0.9419834 0.3842955
127 2.2974546 2.3831513 -2.4138951 -2.2593257 -2.892849 -2.5361552 -1.4065698 0.73326826 -0.14128748 -0.2627166 -1.648864 1.3918654 -2.377743 -1.123071 -0.7793416 3.6197047 2.929282 -0.37697053 -0.4018198 -2.7743053 3.4312441 -0.4869086 -0.93883735 -4.3121 -3.1430244 -2.5662067 -0.59454954 -0.9375907 -2.340742 2.3008537 -1.5036166 0.7132204 0.026575211 2.5370264 1.7153074 0.20879638 -0.93623024 -0.5897826 -0.4737572 7.2241173 1.796199 -0.142248 0.19659773 -1.874637 0.9818702 -2.5436347 -4.5943656 -0.88841456 0.77167577 0.9846209 4.122526 4.276947 0.43168527 1.2376229 1.3651911 -1.795761 0.47380638 -4.0271416 2.3177843 -0.9257378 -1.0528467 -0.65231884 -0.29447696 -0.1113073
77 0.85492605 -0.32742667 -0.6692455 -3.688459 -4.50824 -0.7721582 -0.55670196 0.02615263 0.26234308 -0.2804328 -2.8902357 -1.0667689 -2.8657837 -1.5765275 -0.6087593 2.8165648 -0.14307758 0.66654927 -2.3407574 -2.0135276 3.955427 -0.31379378 0.11512592 -3.4780707 -1.013944 -0.3946776 -0.18420324 0.18407115 -0.4149788 0.88266397 -1.5420055 -1.389526 1.3181161 0.7027391 -1.1075636 -0.24883008 -1.4935147 -0.73662496 -2.034149 1.7250817 1.4590948 0.4394649 -1.8683554 -1.3162767 -0.09710596 -0.10463292 -1.5261415 -1.7871991 1.0219532 1.8806455 0.1372488 0.34842622 0.28780222 3.43272 0.09284366 -0.7532792 -0.6928933 -0.5619143 1.8066016 -0.35263047 -1.0998722 -1.8701954 0.907281 0.36542362
31 1.9710283 -0.9202984 -0.5662189 -4.145524 -5.0197687 -1.1420418 0.25345907 -0.22321711 0.47593206 -0.30386615 -0.74829745 0.08642541 -0.86597705 -0.59908944 0.8129393 2.170691 0.8609349 1.6213435 -2.9527252 -2.6904833 2.0097013 -1.5064992 -0.17089777 -4.838034 -1.5750879 -3.6489906 -2.4934695 1.8244696 2.1616113 2.452084 -3.179981 -0.95047027 1.1620997 2.9748685 0.7058053 -1.217013 -1.8018566 0.81027365 0.73170215 5.100104 3.465328 1.6466473 -0.7248895 -1.3999043 2.1130245 -2.77933 -4.983735 -0.17975083 1.4922361 0.16125543 3.5843048 -0.025679667 0.91317964 1.8886377 -1.9915099 -1.0261284 -0.14769123 -0.98063475 2.0631983 -0.26702827 -3.1328561 3.3074818 -0.45699915 0.12453388
94 0.87537926 -0.34292787 -1.7271452 -4.735673 -8.558613 -2.3857963 -0.5046871 -0.08624934 0.91880244 -2.6056883 -3.2734118 -2.3062253 -0.80200475 -0.96210665 -2.120277 -1.5101473 1.7866577 0.2892081 -3.073517 -0.39335716 1.6872557 0.8663738 0.6165882 -3.082773 -2.694843 -1.259667 2.0424206 -0.23544621 0.06320183 -0.47309175 -0.6674294 -2.6374247 1.2810235 -0.6912787 -2.6338 -0.33329922 -2.6699822 0.9853795 -2.0429301 1.1605643 3.333375 -2.3751833 -2.5893953 -5.396496 -2.0412538 0.92754173 -2.2502732 0.037250984 0.74182236 1.4702624 -0.037363138 -2.4714773 -0.11527021 2.9237666 0.7411569 -2.1705394 -1.8179256 0.49499115 2.4607868 -0.5759955 0.50469184 -0.63806987 0.07429301 0.5488573
92 0.8772719 -0.2808807 -0.6628001 -3.6920245 -4.429683 -0.77609426 -0.58671856 0.05173545 0.25609055 -0.2755512 -2.864882 -0.97584707 -2.7907603 -1.6324365 -0.5883126 2.770809 -0.13898231 0.64626116 -2.3497498 -2.0849168 3.892711 -0.3133492 0.15793887 -3.5186906 -1.0700611 -0.39726037 -0.168242 0.20111436 -0.38084555 0.8465694 -1.5267051 -1.3619646 1.2966034 0.69775254 -1.118286 -0.23452713 -1.4189185 -0.67700964 -2.009288 1.7574712 1.5079842 0.46031222 -1.8714931 -1.2756449 -0.08948226 -0.13779117 -1.5204179 -1.7527008 1.0541482 1.8533463 0.1700607 0.28503576 0.32355472 3.4508522 0.0605045 -0.7684484 -0.67401046 -0.51068205 1.7781539 -0.3559425 -1.0526177 -1.814919 0.8821142 0.3353978
62 2.7786572 -1.2904582 -1.2808435 -5.8568573 -6.6560874 -0.95073557 -0.67484826 0.2579534 0.36455926 -0.10717852 -2.2533805 0.8422118 -3.19636 -0.50562286 1.7807431 1.0142969 2.5030897 0.67678094 -2.4044569 -0.689421 1.8477881 1.368017 0.027284324 -2.9784722 -3.351363 -0.9601606 2.110438 0.79761344 -0.3256699 -0.27517304 -3.0629308 -0.6081998 2.1198153 1.9076463 -0.7935893 -2.5208216 -1.9151543 2.757491 -0.9518813 5.273071 4.5852504 -2.6719623 -0.45481336 -2.0577495 0.09937554 0.293176 -2.595572 -0.023689967 1.5850128 0.47627515 1.0115448 -2.5442212 1.420754 3.9510558 0.63137704 -3.0403423 -1.4912871 -0.024674565 -0.054619603 -0.067031786 1.0894743 -1.1932184 -1.5400349 2.1510417
128 -0.3018918 2.2129123 -0.19211438 -3.5646555 -4.37052 -1.9869719 -0.34994316 0.39796048 -0.87324667 -1.6315098 -2.5105345 -3.9974601 -0.2633904 2.2813296 0.28311583 0.2913608 -2.0585392 -0.14982212 -2.625348 -3.9172459 2.2541184 -1.2891393 -0.9910781 -1.2218125 0.26060352 -3.8827667 1.5831375 -1.6541423 -1.6012467 1.6602341 -1.3876761 -1.7759448 1.8643097 -2.969993 -3.0057242 0.47527236 -2.4483013 0.20096025 -1.2711613 -1.3112444 0.7834331 0.26890135 -3.346914 -2.17151 -0.049386773 -3.2028875 -5.1224265 -0.11414081 2.0107608 1.4037693 1.555777 2.3472404 0.098315485 2.0731702 1.7006856 -3.1816227 -1.9436593 -1.4689536 5.4862533 0.2603403 -2.6673362 1.4080442 3.3150399 1.5239875
89 0.32799828 1.9403819 -0.4078735 -3.6407847 -7.910257 -1.7980008 -2.4674916 0.56380147 -1.435489 -0.62298816 -2.9383817 -2.0022104 -1.5114616 1.5200307 2.4634907 0.25221273 -1.2700353 0.12244707 -1.8270268 -4.737669 1.818746 -2.5879588 -0.5729429 -2.6094432 -2.8092027 -2.4894536 1.8602556 1.0064946 -0.39815557 -0.076795235 -0.7428178 0.43294847 0.61019796 -2.0880747 -0.5943175 -0.8173374 -2.1517417 2.1252453 -1.0088313 0.7304636 2.2992094 0.061676446 -3.9554863 -3.0363913 -0.48614457 -1.4185272 -1.1757973 0.86221176 0.4365449 2.2211664 1.6127734 -1.1861541 -0.5467659 2.0750074 3.989152 -2.5670793 -2.4201496 -0.34014747 0.26179677 -2.764047 -0.45944026 0.84922075 2.631942 1.9699713
88 1.731799 -2.0741985 -0.70523906 -3.7844343 -2.3659017 0.7125544 -4.0181046 0.10338895 1.000774 2.095843 -1.4859672 0.7757058 -1.6009798 -2.3088746 0.14438383 3.0124984 1.7362943 1.3175714 -2.2335794 -2.8313808 2.1407387 -2.2682521 0.14452304 -2.8604727 -3.060172 -2.8981414 0.2131682 1.023613 -0.5226132 2.2931716 -3.6411457 1.0605258 -1.0093842 3.2902825 1.1971644 0.67565036 -2.689744 -1.6776772 -1.8777715 4.8835306 3.414851 0.7166789 -3.6900446 -1.3545301 3.6566463 -1.8209308 -1.3543886 -0.050323926 4.2449937 0.36939034 3.024214 0.96724945 -0.0754102 3.8396235 -1.3229375 -2.4624515 -1.2181722 -2.6737761 2.168905 -1.5960125 -0.07041425 -0.9146364 -2.3417811 1.2759597
37 0.86699194 -0.31336355 -0.65717417 -3.6963487 -4.5308905 -0.78079236 -0.55073214 0.08719658 0.26404607 -0.2601579 -2.902056 -1.0008531 -2.794168 -1.6392736 -0.6063206 2.7906985 -0.07740063 0.6819518 -2.348948 -2.038427 3.9149263 -0.26513603 0.15413296 -3.5177937 -1.0391886 -0.41462362 -0.16818474 0.16065593 -0.38531455 0.82685524 -1.5224603 -1.3696129 1.2941042 0.7507459 -1.1527722 -0.24881694 -1.475353 -0.69460255 -2.0044777 1.7853314 1.5571035 0.43425146 -1.8721966 -1.3596289 -0.08874073 -0.11183624 -1.4876809 -1.7526213 1.0038112 1.8660876 0.16141008 0.2747651 0.34875003 3.4465647 0.0183457 -0.7603796 -0.6525686 -0.5670139 1.81299 -0.30463025 -1.0619295 -1.8302754 0.93203413 0.34375617
11 0.45498013 1.3737066 -2.8693795 -1.4257598 -4.5138884 -1.7601115 -3.525808 0.11515527 1.8859903 -0.8172596 -1.8738971 -0.15370154 -1.4463178 -2.060459 -1.1800582 1.242229 0.8323877 -0.52249444 0.887777 -1.2545028 2.3577745 1.3916069 -0.7564616 -1.6027939 -3.4243567 -1.2939616 0.779876 0.33902258 -2.156193 1.4779912 -1.4072452 -1.4189739 0.056160465 -0.67375344 2.3615205 0.17625761 0.4477013 -1.0213411 0.0142407445 4.333084 3.5954716 -2.0812223 -4.668441 -2.8772259 1.6995596 -0.0037098113 -5.1107736 -1.3308415 4.421821 1.7482923 2.7873974 5.0830383 -0.4055436 1.6561047 0.55336875 -3.5160468 0.061301462 -0.6333987 2.0344024 -1.4721228 -0.9948687 -2.1427176 -0.44064173 -0.5716334
90 0.6397211 2.9312084 -0.35938197 -3.2326279 -1.8880613 -1.0366957 -0.36850566 -0.52561253 1.348856 -2.0543787 -0.7869102 -2.436854 -1.4547849 1.6789998 -0.4691297 1.5964254 -1.3739166 0.9277816 -1.0966548 -3.9484236 3.7030778 -1.7859436 -4.3342257 -1.1859736 1.0362222 -0.71408457 1.5951092 1.4859982 -2.9496198 2.528456 -1.4971819 -2.401756 2.1150177 -1.5539511 -0.3311955 1.5678289 -1.5010319 -0.56495434 -1.8215699 2.8231432 0.9361639 1.6261444 -2.244305 -1.3186954 2.2067688 -1.8715562 -4.360118 -2.29068 4.189331 0.4415291 2.560165 5.5519996 0.7517397 3.312286 0.29170132 -4.809139 -2.8007877 -0.38021585 3.7728915 -1.4944575 -1.7823218 -1.1105846 0.3704805 1.1604203
137 1.0919013 -0.6590509 -0.37216014 -4.443262 -8.418826 -2.109274 -2.2008429 1.3441027 -1.7672688 0.40228742 -3.6257517 -0.7151916 -2.7090101 -1.969233 0.39922702 1.2494887 0.47959158 1.1598582 -2.94009 -2.2719378 1.6808714 0.6906983 2.0315058 -5.1743603 -4.384316 -1.874428 0.4775997 -0.60009843 -0.15706146 0.15559863 -2.1972036 -0.5552701 -7.824598e-05 0.36025432 -1.0449749 -2.6877651 0.92955947 2.0661263 -1.6102625 2.060089 4.0175247 -0.67916113 -3.10476 -1.6392653 -0.332798 2.9415336 -2.5404 0.73994887 0.007879901 3.754896 0.6000034 -2.2411137 0.5764782 4.061965 2.4786165 -3.22589 -1.2764052 1.6081932 0.117125705 -0.074012 -0.42357096 -1.1554888 -0.7563451 1.541375
78 1.8891091 0.64407516 -2.4670737 -4.727634 -4.8258657 -0.448703 -3.2624204 0.7837564 0.94856054 -2.5186882 -2.420499 0.5122552 -1.0387996 -3.5869484 -2.3056831 1.4205322 2.279541 -1.574404 -3.9742966 -1.1814632 0.06978652 1.2909772 0.84848297 -2.9815977 -4.2068963 -2.3126779 -1.4057307 -3.0205505 -0.6543392 -1.1106853 -3.8027034 -1.8128248 1.2751461 1.6979584 -0.5083518 -1.6635664 -0.5325824 0.69640315 -0.61618996 4.2594543 2.3833284 -2.4189627 -0.4157547 -2.6218271 0.91439986 0.12804084 -4.516818 -2.2850192 2.8767126 1.8395818 1.6909204 1.2131585 -0.2426598 2.5496514 -0.020049289 -3.3993917 -2.0499668 -0.6007267 4.1388083 -1.0375656 -2.1078796 -0.72334987 -1.9232574 0.37240908
124 0.81773067 -0.32582408 -0.67288864 -3.6900508 -4.481549 -0.7880125 -0.58019423 0.05759939 0.24415022 -0.28059536 -2.883438 -1.0618807 -2.8448133 -1.5612122 -0.6055478 2.8284767 -0.17668071 0.6723103 -2.2974465 -2.026169 3.935339 -0.31109858 0.092688605 -3.4367425 -1.0278136 -0.39827478 -0.15671337 0.1850413 -0.3967405 0.87732935 -1.5039536 -1.3818815 1.2663187 0.72789496 -1.1115745 -0.24872336 -1.5064288 -0.7305806 -2.0212328 1.7329593 1.4727266 0.45340392 -1.8949107 -1.3218914 -0.09807086 -0.1495051 -1.5039016 -1.7726507 1.0327855 1.8419988 0.15026335 0.3387848 0.28890502 3.4151707 0.090703234 -0.7785797 -0.7005265 -0.5578521 1.8283108 -0.32861513 -1.0623078 -1.8536683 0.923385 0.38228604
56 -1.1497606 -0.36111638 0.25560012 -2.55016 -7.6295295 -1.5476497 -1.8453927 1.6139693 -0.9486638 2.3680851 -4.329045 -2.3498452 -1.3556851 -4.3479576 -1.9188888 0.44776344 1.1128571 -2.1647692 -1.327063 -1.2909414 2.1331034 0.69176924 0.45275787 -1.1175917 -2.2232528 -1.326753 1.2123723 1.1748817 -2.7616208 0.9367988 -0.6715415 -2.8018076 -1.3016518 -0.665375 -2.801174 1.225772 -1.3647753 -0.36702877 -0.53696686 1.3121223 5.147845 0.56467015 -4.3511667 -2.919506 -1.1012883 -0.07768478 0.4384313 0.5061224 3.7016547 3.591314 -1.2956057 0.7059345 0.97875357 2.8977277 1.9645172 -1.5506452 -2.085213 -0.7312675 3.4269397 0.027441984 0.97423583 -0.4369458 2.5701373 0.65348846
175 0.013684075 0.26298118 -0.2285041 -0.06179623 -0.566319 -0.39112297 -0.39172593 0.08047467 0.27071002 0.0042723124 -0.05017928 -0.03991217 0.32914427 -0.05338888 -0.5125124 0.20981193 0.38573372 0.068886094 -0.07197903 -0.56221783 0.14792138 0.043041386 -0.01670623 0.58238465 0.2775946 -0.17383413 -0.66439205 0.111355476 -0.07345076 0.57574975 -0.11196778 -0.26205027 0.35569924 -0.13147242 0.23450962 0.21800843 -0.23420817 0.26435113 0.11238982 0.023171142 0.058062382 -0.15139255 0.06390608 -0.42011532 -0.008718522 -1.0166972 -0.6456039 0.8868661 -0.20594342 0.33600536 -0.121680364 0.067028746 -0.27405488 0.8726998 0.31591526 -0.12826034 0.28498706 0.077763185 -0.6059379 -0.26444122 0.3148349 -0.43862095 0.063572 -0.33780846
9 -0.027570944 0.09518127 -0.14585106 0.198638 -0.57402796 -0.5315828 -0.12066475 0.3102658 0.42282978 -0.055587016 -0.27260044 0.028790433 0.09615815 0.4634017 0.5442324 0.23437281 0.15961002 -0.028749412 -0.4394604 -0.37271178 -0.25171384 0.3819781 -0.14248134 0.594278 0.104567654 0.26510584 -0.8885575 -0.23628022 -0.42923862 0.32095352 -0.2234014 -0.12663583 -0.00747866 -0.04105009 -0.1845765 0.23199226 -0.25747168 0.19334613 -0.3194808 -0.033790678 0.4384786 0.4766153 -0.004078827 -0.35478067 -0.04101446 -0.65050274 -0.41613606 0.5530288 0.07847371 0.6137896 -0.24724172 0.2897441 -0.5116809 0.7921776 0.24483322 -0.21630423 0.3507475 -0.02758206 -0.5836504 -0.13800652 0.36792958 0.14082667 0.11327553 -0.47881076
49 0.56386364 0.84835005 0.20669766 0.19779384 -0.4810099 -0.9867021 -0.44945726 0.30945757 0.53486514 0.8037048 0.2657201 0.32510975 -0.45955816 -0.11229683 -0.024620978 -0.5762463 -0.46138963 0.62351775 -0.53101885 0.2898879 0.6528039 -0.2925789 0.45990983 -0.20404044 0.45947453 -0.08139226 -0.22431603 -0.16687752 -0.28356504 0.39588067 -0.42919824 -0.3011392 -0.06539625 0.15188505 -0.61088985 -0.21841955 0.0070077204 -0.24871026 -0.60331327 0.3850278 0.30007923 -0.14168942 -0.015930677 -0.4546159 0.26692632 -0.66078746 -0.6739475 -0.20183732 0.62540084 -0.08678145 -0.34382036 0.37964258 0.39035144 0.4625561 0.6578694 0.020677509 0.45467007 -0.23108017 0.082661204 -0.11718427 0.3210992 0.2733761 0.16707046 -0.11407449
170 -0.4046158 0.27981782 -0.30464762 -0.42510888 0.0004895934 -0.28540322 -0.13563183 0.24560578 0.011812786 0.31659955 -0.047925185 -0.115039356 0.3862238 0.09095865 -0.5090471 -0.20842727 0.6306468 -0.32234305 -0.2002179 -0.3498508 0.3869583 -0.30544677 0.13964106 0.029464012 -0.010010929 0.07274668 -0.64387405 0.027334314 -0.0675103 1.1359562 -0.3160455 -0.30966273 0.09734856 -0.10158731 0.09129586 -0.5499306 -0.01784187 0.31719276 -0.2128711 0.42922744 0.3671553 -0.45476034 -0.57587737 0.10474124 0.33766565 -1.1636717 -0.80209225 0.68042654 0.19305639 0.13929644 -0.40849012 0.16122146 -0.28216147 0.5006795 0.82920223 0.3412587 -0.28655043 0.09436277 -0.21155484 -0.09988593 -0.0047769384 -0.63273036 0.2286374 -0.02576625
181 -0.42412332 0.16042992 -0.1190312 0.31524107 -0.8373421 -0.107259646 -0.19421734 0.41105548 0.75127566 -0.07322668 -0.31064555 -0.10051585 0.3209928 0.28295243 0.2974511 0.27092132 -0.3179639 -0.016130894 -0.41831514 -0.20800522 0.0076255305 0.12135895 0.2573437 0.9112728 -0.09932714 0.10774485 -0.60918045 0.059613258 -0.41393983 -0.16060747 -0.17534061 -0.24443051 -0.11373034 0.21374919 -0.5498213 0.0930219 -0.39728254 0.021191815 -0.4872835 -0.05080904 0.4609889 0.25388765 0.06514321 -0.47852764 -0.09040661 -0.6219952 -0.47318584 0.07082936 -0.050374046 0.41029298 -0.17505796 0.2240669 -0.46610296 1.245638 -0.07404493 -0.47074518 0.29361066 0.46752012 -0.33854198 -0.19530506 0.35748196 0.22457583 0.09408727 -0.16918872
86 -0.15677795 0.48843116 0.086715065 -0.1041328 -0.20218545 -0.6245839 -0.07366589 0.037534714 0.6346441 -0.24695435 0.034680296 0.25844702 -0.69036 0.36059022 0.35612348 0.17149805 0.008257757 -0.2404432 -0.44642386 0.4278416 0.85984844 0.26928574 0.12310465 -0.3148093 0.47458357 -0.2649554 -0.37994382 -0.24198844 0.2775063 0.9308169 0.2503711 -0.68063784 0.044409722 -0.0019794526 -0.42142677 -0.69710696 -0.19307475 -0.15492755 -0.41026273 0.4542856 0.20526078 -0.3364577 -0.04810258 0.45157248 0.09157266 -0.11479527 0.021984732 0.57896703 0.26827878 0.43043727 0.044232924 -0.31105796 -0.24865738 1.0372769 -0.42026314 -0.40091628 0.18955994 0.21893206 -0.07203272 -0.40413594 0.28189203 -0.06771325 -0.048297204 0.7130814
167 -0.3871206 0.1782479 0.01236455 0.033679057 -0.47262436 -0.5415946 -0.112779744 0.04925876 0.7136427 0.016631914 0.16839811 0.47867295 -0.47764754 0.22874016 0.45001057 -0.025204966 0.044926524 -0.4898079 -0.33889076 0.29630658 0.8152171 0.08850966 0.11024899 -0.5886874 0.6064366 0.1005927 -0.15507367 -0.033711515 0.2363504 0.8317667 0.3234383 -0.39182732 -0.07884198 0.009292079 -0.32244354 -0.6559756 0.1998659 -0.28427127 -0.3208937 0.33139193 0.028309561 -0.50229174 0.11578679 0.4770853 0.03161991 -0.4012059 -0.108886115 0.52392703 0.58171594 0.87393916 0.009102838 -0.14866821 -0.2905474 1.0523349 -0.5454313 -0.21399312 0.27447504 0.07617955 -0.312127 -0.30915946 0.3329112 0.0016466164 -0.23068148 0.8298027
48 0.45518503 0.86503994 0.29688045 0.20384528 -0.37699676 -1.094466 -0.4760978 0.3724714 0.4642219 0.8154128 0.20799537 0.24864821 -0.48995072 -0.14627193 -0.023922762 -0.69415617 -0.32988933 0.5210161 -0.5368065 0.41218585 0.6445665 -0.509367 0.505153 -0.20664932 0.46760044 -0.15270804 -0.3656397 -0.035417795 -0.38096082 0.23517011 -0.61035705 -0.23572505 -0.11277932 0.11011371 -0.56828487 -0.23730403 -0.016549654 -0.23781869 -0.36658472 0.12340883 0.44403774 -0.13595468 0.09569894 -0.532182 0.28133217 -0.5858697 -0.6601947 -0.26959956 0.72223604 0.07733969 -0.22601978 0.29845986 0.27344093 0.5184738 0.52537555 -0.053176887 0.40721667 -0.3864133 0.12912825 -0.33464983 0.27782422 0.21408701 0.14392418 -0.006378113
163 -0.4100874 0.44767058 -0.23840731 0.06811438 -0.40279016 -0.42083845 0.045730177 0.02346557 0.8585233 -0.116343185 0.25017923 0.59084266 -0.73308414 0.35418 0.46145356 0.17783138 0.052976094 -0.44876617 -0.3713439 0.38776663 0.84575415 0.046011508 0.046599865 -0.4878155 0.45430905 -0.0006802475 -0.203024 -0.2701816 0.4711687 0.83769447 0.10177515 -0.4370298 -0.19973744 0.13236856 -0.30029443 -0.7568694 0.119970776 -0.27571633 -0.16817954 0.29109865 0.07709421 -0.5362221 0.20690836 0.35529256 -0.011372878 -0.3156342 -0.14826839 0.48845428 0.4078901 0.6785525 -0.10680873 -0.14522664 -0.42988923 0.9134381 -0.31100345 -0.1706078 0.17911679 0.18553737 -0.26225185 -0.45082852 0.39033502 0.03855548 -0.114084266 0.6903353
114 -0.2239506 0.36128077 -0.4921176 0.14310934 -0.10203825 -0.70403224 0.12168653 -0.031831257 0.5034059 0.3379948 0.53422606 0.052228317 -0.2578226 0.29772565 0.25150207 -0.25472927 0.79354155 -0.07546264 -0.5749744 -0.22799774 0.35711092 -0.093058325 0.8512855 0.47425222 -0.15699898 0.23465504 -0.6087188 0.336573 -0.4301419 0.1469697 0.26243123 -0.13882978 -0.22903813 -0.14398101 -0.59190387 -0.86000264 -0.45441854 -0.26031455 -0.42877638 0.47549152 -0.15849337 -0.25664666 0.7467699 0.27192074 0.030070035 -0.44439802 -0.8507207 0.2649467 0.63734436 0.014712768 -0.08595839 -0.39650923 0.35097125 0.14270037 0.15755688 -0.9610974 0.36354205 0.45210978 -0.06600103 -0.14018098 0.11217564 -0.115474746 -0.038303148 -0.29532313
185 0.15048054 0.42643708 -0.23655787 0.13431312 -0.54160625 -0.06921283 -0.18673012 0.36266655 0.25496483 -0.0065352703 0.06331761 -0.3997944 0.10716607 0.3721815 -0.5123463 0.260028 0.19663209 -0.48507282 -0.3359676 -0.11426363 0.09942818 0.14650904 -0.14345776 0.52457535 -0.07595475 0.5101111 -0.719157 0.43492162 -0.10792095 0.31482822 -0.34491587 -0.22923656 0.013326917 -0.017067969 -0.20276402 -0.0005468494 -0.41345194 0.24361299 -0.14980814 -0.06467619 0.2807545 0.25945488 -0.044186328 -0.6538745 0.11931045 -0.8598739 -0.25141183 0.655707 0.16740456 0.54305893 -0.115770325 0.30676833 -0.5466512 0.85075694 0.056955583 -0.46998724 0.18498757 -0.20726022 -0.66169864 -0.10729414 0.43695202 -0.0967547 0.08242858 -0.53676605
117 -0.40045154 0.13749084 0.27457657 0.27725744 0.14802161 -0.5950658 0.058542274 -0.83796704 0.7212504 0.55186325 -0.3744894 0.24728577 0.16731596 0.07797869 0.18397295 -0.018006502 0.0386744 -0.31348893 -0.91089374 1.1456591 0.30240673 0.18526155 0.5031714 0.841505 0.4149174 0.55435324 -0.15309978 -0.07920009 0.08743673 0.50089747 0.22413881 -0.5818504 -0.0011822804 -0.40264577 0.39754528 -1.083117 -0.3057556 0.22176059 -0.2507897 0.27885944 0.0028045953 0.14731406 0.28702122 -0.6793146 -0.13220817 -1.3235699 0.033327397 -0.108698465 0.6214341 0.23473825 0.21625881 -0.4236352 0.22583356 0.64124185 0.50864065 0.19797154 0.62567264 0.2700779 0.12239349 -0.7800876 -0.53686374 0.07629233 0.5504007 -0.4614554
20 -0.03180936 0.37007517 0.32915872 -0.13888967 -0.32791793 -0.92899555 0.17226061 0.5346252 0.27267113 0.022126243 -0.2668473 -0.15077312 -0.37461206 -0.27533063 0.4049807 0.49605203 0.053128313 -0.03068613 -0.30453748 0.12289245 0.5944431 -0.6814272 0.09757084 0.58316314 -0.24918509 0.6776754 0.18915525 -0.33993366 -0.57974225 0.56298417 0.9234099 -0.34624928 -0.58558017 0.42747504 -0.18067108 -0.54983896 -0.66779315 -0.60587347 0.12825337 0.46968636 0.37902835 0.12116676 0.26188305 -0.106476665 -0.35192233 -1.2388997 -0.53007734 0.47297785 0.4043717 0.10199068 -0.4497809 0.53634864 0.35695738 0.23541948 0.62214714 -0.51651186 0.114411056 -0.018720431 -0.25631803 -0.8151306 -0.07863985 -0.20903108 0.084089324 0.89935315
186 0.13472882 0.29644173 -0.082724266 0.057018984 -0.3392762 -0.44134852 -0.22657241 0.10308149 0.36695412 0.18361169 -0.118639536 -0.19683783 0.32566708 0.22896795 -0.6389931 0.12056184 0.32868427 -0.45247388 -0.08626721 -0.45667696 0.190896 0.0867122 -0.34983826 0.35606036 0.18135644 0.23580222 -0.8557128 0.15451273 0.11104794 0.38381523 -0.026387995 -0.2385538 0.17635791 -0.08208138 -0.17512925 0.10265879 -0.32473612 0.12064125 0.072057955 0.07513834 0.024728939 -0.24290659 0.06486039 -0.5770724 0.009285056 -0.9175129 -0.62074256 0.5219548 -0.24581963 0.13870208 -0.31952316 0.04366395 -0.48549157 0.9535014 0.24610452 -0.18174255 0.15998612 -0.22587703 -0.6935042 -0.12141725 0.22480312 -0.5765201 0.0018973604 -0.47479048
168 -0.36835977 0.2835192 -0.25428584 -0.03547157 -0.5641598 -0.71106374 0.038399853 0.18025777 0.9329466 -0.09689708 -0.034088556 0.88175595 -0.5653256 0.10587053 0.32703176 0.03898776 0.16003771 -0.44436625 -0.67271316 0.38486975 0.5576488 0.038609512 0.1408781 -0.40481508 0.38999426 0.23248844 -0.04664212 -0.04318774 0.45676112 0.82943535 0.32118642 -0.4782795 0.10673045 -0.038956523 -0.32173958 -0.68114465 0.21858513 -0.2826222 -0.12694554 0.114083454 -0.118471384 -0.4673829 0.22035193 0.41274717 0.015679484 -0.49997115 -0.31611988 0.5033071 0.68765175 0.5674597 0.17049271 0.043912984 -0.4964702 1.0040989 -0.46291065 -0.06451754 0.1908746 0.09000521 -0.07076242 0.032097347 0.4696843 0.1661928 -0.2529262 0.9226178
103 -0.2606592 0.072002225 0.22597703 0.5746741 0.28181055 -0.6902146 0.14468017 -0.52479875 0.974785 0.40051955 0.026034616 0.2047605 0.15026127 -0.22463919 0.22984686 -0.17843361 0.1598154 -0.42136785 -0.62472147 0.83852834 0.08573408 0.2479483 0.086486846 0.7183163 0.1802718 0.46733654 0.20449345 -0.18655023 -0.2286944 0.5587717 -0.22703256 -0.6575864 -0.025552757 -0.29730335 0.4751994 -1.1225953 -0.14781322 -0.161159 -0.61484563 0.37517184 -0.20826262 -0.10919086 0.18209209 -1.0655229 -0.165716 -1.2892749 0.115046345 -0.26636478 0.8003849 0.51100343 -0.12777498 -0.6270743 0.10481574 0.77100956 0.35065776 0.21570227 0.65345275 0.532282 -0.21566325 -0.6938156 -0.58679014 0.019926501 0.68679106 -0.16692254
143 0.115443885 -0.044811986 -0.016212767 -0.2562686 0.20807697 -0.19930442 -0.35819447 -0.534343 0.87566435 0.14601967 -0.38776806 -0.034687065 -0.7474617 0.19963865 0.38053933 -0.49769554 -0.226175 -0.37783358 -0.5040455 0.049632102 0.27309674 0.19272833 0.27224615 0.36773843 0.1230675 0.16424483 -0.53401464 0.075392604 -0.22322462 -0.083827704 0.43447036 0.1510835 0.018698981 0.43987086 -0.07230286 -0.683902 -0.590326 0.793661 -0.35536766 0.25796697 0.18283074 -0.6697822 0.079498775 -0.61194867 -0.4338824 -0.8502352 -0.1278419 0.56572396 0.8985652 0.20918436 0.32464638 -0.06111941 0.08315674 0.31783345 0.6183747 0.23970795 0.5277642 0.19865271 0.07871228 -0.044326458 -0.82224774 0.09043058 0.16495754 0.32770145
162 -0.4104722 0.31834486 -0.040703364 0.072878145 -0.5414656 -0.6539041 0.1400981 0.30018649 0.9302621 -0.12845051 0.11973661 0.45985088 -0.628263 0.2059452 0.4544924 0.17294092 -0.04229896 -0.48777884 -0.5768092 0.31352496 0.8388834 0.05610444 0.17363256 -0.52980065 0.43424267 0.09807667 -0.21444844 -0.30451792 0.65900457 0.72345686 0.21729311 -0.27751842 0.014562283 0.23560314 -0.36425754 -0.92029333 0.22108795 -0.24083161 0.017731087 -0.10050954 -0.1314744 -0.38431087 0.32075018 0.5377435 -0.13907818 -0.61262083 -0.27859443 0.5060287 0.66759264 0.60571617 0.18185166 -0.056898244 -0.43027535 0.9342546 -0.4355261 0.06546082 0.059161462 0.2625489 -0.20341274 -0.061756108 0.46530294 0.029487329 -0.0008856615 0.59042543
116 -0.43365726 0.24562581 0.18265133 0.13750112 0.22833969 -0.6235084 -0.080913916 -0.91885316 0.68411756 0.38627338 -0.39938375 0.26244703 0.19635752 -0.01597788 0.15772213 -0.090508014 0.06602152 -0.42828152 -0.9637944 0.9749961 0.44775167 0.16169167 0.5004474 0.843224 0.3183414 0.39204752 -0.1114893 -0.17859629 -0.022119261 0.3424226 -0.008562843 -0.40825844 -0.05628943 -0.25908238 0.5765555 -0.9579243 -0.34965506 0.24874696 -0.28761244 0.17894128 0.14326952 -0.12826285 0.21151024 -0.6443217 -0.20156078 -1.1630719 0.013286286 -0.17537645 0.5956066 0.3615078 0.1675016 -0.48631015 0.2584755 0.4515822 0.45771137 0.0860877 0.7098812 0.37385908 -0.07564521 -0.73900235 -0.49863216 0.15493512 0.6475229 -0.17986374
113 -0.31135857 0.36630777 -0.4187703 0.018641964 -0.12462646 -0.55920905 0.21246676 0.113808244 0.5029649 0.3708338 0.59990174 0.08021563 -0.25171655 0.30248198 0.13948146 -0.1521075 0.67225224 -0.10442773 -0.90073824 -0.3668946 0.4334356 -0.15189798 1.0190986 0.4992295 -0.07388844 0.34704533 -0.7715668 0.21859823 -0.68866014 0.16149881 0.3970855 -0.20563014 -0.14758538 -0.11449456 -0.49371874 -0.7516718 -0.3910562 -0.14146984 -0.51924443 0.41133076 -0.25618356 -0.36183265 0.57204294 0.34865776 0.14404066 -0.33421648 -0.98821694 0.21350107 0.55272347 0.12854727 -0.1626737 -0.51981217 0.43882725 0.034678683 0.11419143 -0.815203 0.45894113 0.34556565 -0.110914275 -0.18096396 0.20847675 -0.075820446 -0.23765032 -0.22973964
141 -0.15453723 0.23235597 -0.5254689 0.2620296 -0.1771049 -0.7226206 0.16356637 0.013434391 0.31905448 0.32250893 0.30887803 0.14844795 -0.21681772 0.29031798 0.21307544 0.049801163 0.40404078 -0.3832768 -0.20030849 -0.14443545 0.63722193 -0.2284587 0.9909078 0.61450976 -0.20501797 0.22622848 -0.4492243 0.3277196 -0.584006 0.29350075 0.2897933 -0.30444878 -0.093158185 -0.23777342 -0.8217274 -0.66003114 -0.111573815 -0.21110375 -0.6784401 0.664559 -0.18726552 -0.20194016 0.7362836 0.28001007 -0.12021294 -0.24888654 -0.9100821 0.52793956 0.71884465 0.024179075 -0.12217112 -0.67696995 0.29266962 0.29964927 0.3452734 -0.667423 0.20430185 0.102894254 -0.15488312 -0.10720157 -0.1188613 0.10398188 0.05846724 -0.3992697
123 0.16005546 -0.11271551 -0.14466341 -0.06741897 0.15904313 -0.3886588 -0.19817217 -0.55713314 0.8233898 -0.06662304 -0.30864528 -0.0853048 -0.77753586 0.25103882 0.07343895 -0.43500087 -0.1677467 -0.56327313 -0.5492811 -0.10432547 0.10718048 -0.23290756 0.33828145 0.34169593 0.10694535 0.24183056 -0.34623095 0.08597448 -0.19818991 0.26057076 0.22935028 -0.09416424 -0.1767004 0.36405092 0.014242451 -0.4893426 -0.6821926 0.7289429 -0.34561604 0.39024305 0.47486946 -0.5071266 0.2760644 -0.67596817 -0.47743887 -0.48635852 -0.26957408 0.020770367 0.70317656 0.34298208 0.40284204 -0.32139578 0.47483224 0.65154845 0.782408 0.575042 0.53414214 0.29330313 -0.28905186 0.074332274 -0.6703037 0.114773154 -0.034765657 0.6092663
176 0.22317739 0.39359653 -0.3125322 0.18702503 -0.60351115 -0.4575789 -0.32531473 0.3977067 0.10640648 -0.33556628 -0.21789464 -0.11014309 0.24489075 0.21521759 -0.028362293 0.5302132 0.42133424 -0.086420245 -0.13774624 -0.4531553 0.05572472 0.31395817 0.09180014 0.52474785 0.13194863 0.10125523 -0.82394683 0.13385582 -0.35737154 0.45479065 -0.35418874 -0.11945897 0.2266852 -0.0022616773 -0.058408197 -0.06570183 -0.3588795 0.23518346 -0.1027289 -0.11020159 0.25275055 0.066270724 -0.21834598 -0.4620506 0.07818555 -0.8735607 -0.32475632 0.49371845 -0.035424802 0.83731586 -0.103973396 0.18777703 -0.24399167 0.77426815 0.325172 -0.14088273 0.21390747 0.186665 -0.5068513 -0.052299857 0.28440818 -0.26194432 -0.1607773 -0.51909506
104 -0.30096218 -0.057703514 0.0990581 0.31595132 0.20211935 -0.5619912 0.1323088 -0.68280554 0.85896206 0.5352513 -0.17597924 0.34373984 -0.1644402 0.01553462 0.2607722 -0.10811172 0.017848145 -0.51295954 -0.50476557 0.84197617 0.21010807 0.53236854 0.20146021 0.6482288 0.26278228 0.42050782 0.23741396 -0.116462514 -0.08843146 0.31171504 -0.023422532 -0.6825668 0.17817488 0.008579561 0.5496916 -0.9120895 -0.26256016 0.024956161 -0.58407694 0.24600981 -0.15831694 -0.009212385 0.1558235 -1.0151119 -0.22036813 -1.37919 -0.1271072 -0.25534186 0.72132355 0.5329831 -0.16064228 -0.59910375 0.35978812 0.6503784 0.4988291 0.18243541 0.3709838 0.4036138 -0.17707132 -0.6258495 -0.56653374 0.13050659 0.58253634 -0.12643571
40 -0.043636825 0.6537012 0.2086232 -0.19774689 -0.1437732 -0.92719185 -0.03811969 0.61054903 0.54856706 0.00970125 -0.6677191 -0.15329152 -0.3028613 -0.49985442 0.5756383 0.62507254 0.3228042 -0.3488328 -0.3497115 0.028419094 0.37009576 -0.97445345 -0.3941947 0.56011975 -0.041931022 0.3577353 0.19816817 -0.13806558 -0.62359506 0.4254781 0.9022059 -0.42661554 -0.488928 0.64360285 -0.2633119 -0.5821185 -0.21351655 -0.79104286 -0.16875426 0.40305185 0.35975143 -0.050980225 0.3348593 -0.35516554 -0.25412863 -1.0177009 -0.42969012 0.4200331 0.4905917 0.06156624 -0.39457846 0.18401034 0.21285735 0.24544206 0.830062 -0.5878349 0.30148387 0.044408802 0.03631983 -0.70404583 0.13827555 -0.2643704 -0.03736212 0.6662926
76 -0.3910253 -0.06077769 -0.2254117 -0.057625275 0.28011388 -0.52596116 -0.10362146 -0.7556821 0.53192675 0.12533824 -0.47989294 0.15063085 -0.36553797 -0.12851003 0.056285426 -0.12564075 -0.1165558 -0.43606502 -0.6946387 0.9263998 0.08387482 0.2119435 0.5140238 0.3545231 0.19057453 0.4205241 -0.1360786 0.13403405 -0.24975409 0.0041782977 -0.056142706 -0.017013423 0.069095835 0.0036826865 0.87103885 -0.7758771 -0.79263073 0.17535028 -0.6266255 0.39260963 0.10566195 -0.40333924 0.11561642 -0.8634994 -0.38540715 -1.0358548 -0.09477792 0.06721554 0.9006583 0.42733753 0.20657909 -0.625578 0.39438817 0.5478532 0.58468795 0.023313481 0.21122302 0.4512886 0.3170655 -0.38504216 -0.017817749 0.39516142 0.5890151 0.15453894
96 -0.16610548 0.08648459 -0.44027576 -0.3466972 -0.16030428 -0.5138906 -0.04741928 0.20478582 -0.1545701 0.21694614 0.06426445 -0.17967127 0.3199377 -0.30743197 -0.45369488 -0.31349868 0.65462065 -0.32231554 0.17420107 -0.33361313 0.112307526 -0.43810195 0.3646798 0.13977785 0.12040119 0.041301083 -1.0375323 -0.35001954 -0.03025722 1.185669 -0.22931674 -0.30590597 0.14040115 -0.1646176 0.2179197 -0.44259208 0.041201513 0.35600424 -0.035543624 0.34982228 0.24278688 -0.3356651 -0.49448425 -0.007123032 0.27433968 -1.1755106 -0.67773336 0.5311999 0.45222417 0.17589761 -0.18467419 0.10259248 -0.44085106 0.67031944 0.68170434 -0.028608233 -0.08615407 -0.044179864 -0.17271774 -0.22414115 -0.20280787 -0.45514467 0.20158008 0.03838504
154 0.25912672 0.2305726 -0.3406928 0.35660177 -0.02810713 -0.96291065 0.06434758 -0.07433667 0.6970528 0.16517796 -0.18850285 -0.40206578 -0.64634734 0.75627065 0.21758783 -0.16131708 -0.20858091 -0.21994272 -0.6695477 -0.3467739 0.4518479 -0.3437615 0.040489707 0.43748707 0.26530346 0.763727 -0.6076445 0.08374953 -0.3732429 -0.23380972 0.008408285 -0.1962839 -0.38486525 -0.25877577 -0.1196186 -0.5043282 -0.06232696 -0.37051043 -0.20233172 -0.45353365 0.19306596 0.49636334 -0.50318223 -0.56120974 -0.09546448 -0.5761649 0.15991127 1.1593432 0.14880681 0.14621912 -0.48280743 0.41022465 -0.5070462 1.1035639 0.26877207 -0.9066959 0.41261736 -0.017625866 -0.80674356 0.43372712 0.24343026 0.6454364 -0.9368901 -0.39154777
84 -0.30751717 0.30377683 -0.6092397 0.025166854 -0.45441502 -0.8678947 0.106299914 0.19316594 0.5551696 -0.20698665 0.16380599 0.60650104 -0.5008435 0.45563024 0.70371115 -0.028842567 -0.14017373 -0.50753593 -0.8275226 0.12645356 1.2571834 -0.0032454042 0.031009177 -0.5774319 0.43069732 0.07904812 -0.24907066 -0.3951636 0.63519615 0.8448469 0.36267674 -0.16937104 0.13533719 0.32482105 -0.20642115 -0.6978609 -0.027371254 -0.37452805 -0.111032575 0.14236172 0.22540107 -0.32115254 0.09133504 0.28273624 0.28830814 -0.4668189 -0.32973105 0.50539917 0.29440936 0.6391848 0.066712126 -0.36807016 -0.22363767 0.89585733 -0.6674805 -0.21762569 0.20667318 0.0047690137 -0.11251666 -0.032492433 0.18476352 -0.08949208 0.190744 0.7105695
97 -0.1195614 0.16378298 -0.3580887 -0.47091544 -0.001718341 -0.37884998 -0.25935674 0.32170895 -0.08803409 0.5181056 0.2734109 -0.032788012 0.3430391 -0.28918153 -0.22443801 -0.040164348 0.6813608 -0.25534075 -0.19521561 -0.41035438 0.21413447 0.06595055 -0.19711575 0.78722405 0.2821659 -0.36541188 -0.54536176 -0.16299808 0.14187345 0.99004245 -0.45943743 -0.24866533 0.17875463 -0.21039416 -0.099333785 -0.055127695 -0.23605083 0.3650226 -0.36820504 -0.015783887 -0.22805902 -0.15814675 -0.16939835 -0.45016322 -0.0112889465 -1.1832823 -0.73883104 0.82413995 -0.17043014 0.3321018 -0.31105608 0.07261412 -0.41315785 0.74260443 0.5665977 -0.1283419 0.03320174 0.055550516 0.17727862 0.11328611 0.3302463 -0.52567184 0.08606303 0.1913185
140 -0.14979115 0.23013562 -0.39863992 0.18620996 -0.29390737 -0.577543 0.07732308 -0.0037493794 0.19914658 0.36855987 0.36404857 0.34012353 -0.11302908 0.20881303 0.26815653 0.05866647 0.39132774 -0.5829946 -0.45947826 -0.24590404 0.8715487 -0.2952313 1.2171775 0.72776294 -0.19264697 0.056474146 -0.7710876 0.29304847 -0.61708575 0.2749134 0.29374775 -0.28686097 0.059254207 -0.22851183 -0.97254604 -0.78086954 -0.2837759 -0.23335287 -0.5313785 0.51325893 -0.18517382 -0.19683242 0.7471416 0.10538038 0.039746426 -0.16143672 -0.912253 0.6156998 0.6723035 -0.1268465 0.06681018 -0.44204953 0.26111078 0.085859835 0.28632504 -0.68277574 0.19789115 0.10288233 -0.071146265 -0.19768931 0.007198358 0.124061234 -0.31508884 -0.27168778
155 0.2578781 0.46572217 -0.345592 0.23703936 0.08760361 -1.0668764 0.09451725 0.021746688 0.50790244 0.09601207 -0.23837717 -0.3238332 -0.71383023 0.937154 0.24729687 -0.24151367 -0.11653215 -0.25762787 -0.6747305 -0.38211492 0.5059001 -0.36422488 0.23314613 0.119338326 0.08858132 0.79835474 -0.5146432 -0.045596585 -0.60961205 -0.12197682 -0.0670043 -0.20659041 -0.45617276 -0.1598536 -0.15911466 -0.7346072 0.061504018 -0.5194448 -0.4523353 -0.23246647 0.4065156 0.6259726 -0.87602687 -0.333765 -0.03943146 -0.672304 0.30854422 1.4310333 0.23087543 0.2562026 -0.3819847 0.3869707 -0.48318583 0.8168682 0.40465334 -0.9061115 0.3836847 -0.03656239 -0.80472124 0.29688463 0.2914723 0.96647865 -0.9481668 -0.37192896
83 -0.5209358 0.15362771 -0.11312973 -0.125259 -0.4925883 -0.75781876 0.18871014 0.32131127 1.0543567 -0.34829232 0.07936434 0.4890086 -0.5866036 0.4048625 0.37088946 -0.18373 0.085099466 -0.4848351 -0.46267164 0.18574092 0.71997136 0.43686816 0.073968 -0.2960977 0.5870817 -0.017708765 -0.2375393 -0.24920298 0.7537184 0.80034024 0.57806724 -0.50855905 0.17995329 0.2284628 -0.5843924 -0.89250857 0.40039068 -0.18993734 -0.2393623 0.04704428 0.13109595 -0.22232741 0.10977395 0.30996877 0.11882154 -0.25540608 -0.34362274 0.5679993 0.31634912 0.51717436 -0.0807712 -0.06312675 -0.06357054 0.9521468 -0.22035517 -0.19217122 0.0114809815 -0.050782204 -0.035967506 -0.3831168 0.3928787 0.11901781 -0.16342731 0.84864736
13 0.35687542 0.10740265 -0.3177148 0.642236 -0.06761614 -0.5421025 0.3893789 -0.010618261 0.7556472 -0.12733912 -0.13516834 -0.56891745 -0.13781497 0.66402304 -0.1309297 0.20999005 -0.3275338 -0.7478874 -0.43578136 -0.14946562 -0.20358692 -0.009348663 0.28033718 0.9117099 0.0033062366 0.6773471 -0.86415994 -0.13112569 -0.19257013 0.23059443 -0.29393953 -0.39900374 -0.105519526 0.58472955 -0.04659816 0.21829762 0.21511248 -0.22558583 -0.3608855 -0.2363226 0.31125176 0.0091093015 0.07697813 -0.3555399 0.15945871 -0.6003156 0.1622971 0.6530872 0.047098935 0.36402544 -0.31006137 0.5458614 -0.43120238 1.0451615 0.29093453 -0.97400016 0.7327433 -0.6755471 -0.58343875 0.33129466 0.5272156 0.32303607 0.06677335 -0.3899416
156 0.36382228 0.088520266 -0.4074008 0.3840348 -0.52366084 -0.40352213 0.099917956 -0.0009299563 0.86853635 0.39765835 -0.23485047 -0.42308056 -0.5017544 0.62632704 0.41619986 0.1428022 -0.15362346 -0.104878366 -0.5194831 -0.27307385 0.29723963 -0.1521867 0.10161633 0.5565262 0.1691667 0.6252814 -0.85512173 0.19848993 0.0031650453 -0.21390842 -0.24587971 -0.45794603 -0.43286487 -0.27239126 -0.36052614 -0.30242565 -0.2376571 -0.30251467 0.038509827 -0.82973856 0.12099409 0.3691871 -0.54663503 -0.60677916 -0.36168268 -0.50841826 0.036896802 1.0901792 -0.093679495 0.11360567 -0.49577317 0.28838292 -0.38306835 1.0713445 0.42524418 -1.0466859 0.37197047 -0.21817973 -0.5360888 0.38441622 0.28490427 0.3753145 -0.52052814 -0.30704144
85 -0.5033554 0.22682938 0.31195074 -0.06740871 -0.36624384 -0.91253257 -0.134602 -0.44406918 0.6322051 -0.27822742 0.43323717 0.29481247 -0.496254 0.13034369 0.61587393 0.37951037 0.098640494 -0.27269524 -0.6808109 0.24820106 0.534965 -0.20705105 0.022061566 -0.30124316 0.71381116 -0.28708643 -0.5763066 0.25281674 0.44431335 0.9764222 0.1502756 -0.72635293 -0.30280548 0.45312473 -0.35895628 -0.535191 0.03535519 -0.20057026 -0.4108086 0.58018124 -0.026411228 -0.2999827 0.041254327 0.3617056 0.30822515 -0.365157 -0.01002213 0.5976219 0.41569296 0.18088654 -0.33499935 -0.28161752 -0.18354034 0.89615077 -0.72361094 -0.24014898 0.15204872 0.26429242 -0.32184747 -0.07130327 0.14676166 0.37327766 0.317323 0.8136241
33 -0.82620627 0.40952092 0.5413657 0.5490556 -2.0328734 0.22719413 0.20043673 0.75112987 0.3908755 0.2844092 -0.7397875 -0.96125025 0.4288932 0.30196914 -0.23207477 0.21584818 -0.09124096 -0.26399556 -1.4514163 0.9397212 0.59928423 -0.14361392 0.45173565 0.97503394 -1.3513578 0.030924993 0.11890924 0.7196146 0.58620316 -0.010459636 -0.8611034 0.5388231 0.14845537 -0.17287475 -0.71497816 0.44768128 -1.0055289 0.03811137 -1.5411907 0.8391533 -0.05000393 0.49744093 0.10138219 -1.0400428 0.5977156 -0.31418222 -1.0009158 0.21536592 -0.11709935 0.7582454 -0.0391291 -0.12243239 -0.7650795 1.3876148 -0.35008648 -0.560925 0.17953238 -0.006057966 -0.0575679 -0.28133866 -0.4082959 0.0034356406 -0.3231126 0.73192555
108 -0.24422121 0.50258875 0.20563726 -0.104199104 -1.3295988 0.7520031 0.15201877 -0.14788088 1.6681646 -0.22213216 0.9653443 0.5463057 -0.78427017 0.56105435 0.2831136 -0.9567903 0.3415052 -0.20421144 -0.56611276 -0.18321693 1.101654 -1.0830051 -0.55098957 0.338386 -0.98913324 -0.719849 -0.82012516 0.25308323 -0.49871662 -0.16127698 0.7884808 1.0478597 -0.021627901 1.1150424 0.337638 -1.0451031 -0.003987475 0.71697384 -0.51879793 0.1338509 0.97325665 -0.07872006 -0.7513319 -0.52945155 -1.1000168 -0.7345299 -0.8320278 1.6372441 0.4559467 -0.65503997 0.14003563 0.30908832 0.6984094 0.9544449 0.7623233 0.43162516 0.75328374 0.22401305 0.85575646 0.62340313 -0.29773948 0.28260988 -0.29246187 1.0724477
125 0.2403186 -0.55524457 -0.3113268 0.18071964 -0.3743011 0.20159651 -0.8673384 0.5954501 1.3399768 -0.44288507 0.7547895 0.4637165 -0.6460396 0.2446147 -0.21638164 -0.33574685 -0.16703552 -1.0225793 -0.8762678 -1.6321218 0.79052496 -0.2695999 0.1254044 0.4607092 -0.72321725 -0.17244004 -0.15957652 0.059864298 0.025296312 0.44252142 -1.1117967 -0.05998589 -0.04672356 0.8487496 -0.37216842 -1.2964286 -0.23154224 0.4476136 -1.3307333 0.07694352 0.77368337 0.026890403 0.263352 -1.2056024 -1.3189757 0.017620983 -0.9680275 0.47470695 0.40914524 0.5237324 0.45174256 0.17127769 1.2635648 -0.1689634 0.6667247 0.2797348 0.16811237 0.19689685 -0.002953463 -0.3275708 -0.26629376 -0.010943834 0.0029032202 2.0212777
109 -0.0004442023 -0.118295915 0.23381537 0.112220064 -0.7677757 -0.78465635 -0.17027344 0.054930855 1.8639736 0.89257747 1.128664 -0.018926796 -0.9929865 0.88091815 -0.17528856 -0.48339224 -0.024163228 -0.66316366 -0.52856326 -0.4212223 1.2215796 -0.8162704 1.0114222 1.2790513 -0.16713667 -1.1932249 -1.0478429 -0.35817158 -0.059901126 -0.53530544 1.165301 1.2346438 0.34722906 0.9919697 0.24910933 0.20538613 -0.44459453 0.70462346 -0.77014786 0.26943213 0.24316259 0.13175961 -0.6325948 -0.5404151 -1.0130595 -0.55027425 -0.94713956 0.66851217 0.111436315 0.058205783 0.8018812 0.12781925 -0.38586858 -0.038636345 0.37288305 0.7240146 0.16991922 0.5022582 0.5824018 -0.9001469 -0.36897087 0.66493523 -0.7111986 1.90531
106 -0.5983272 -0.08266366 -0.4014155 0.11487314 0.3109208 -0.7798306 0.22268935 -0.029186033 1.3805841 0.46398455 -0.87488246 0.99463624 0.29472527 0.02150104 0.17311944 0.4377677 -1.0388281 -0.36408567 -1.0044569 0.8638256 -0.014165605 0.28055808 0.35359082 1.0312666 0.7094798 0.048739653 -0.6036987 -0.2450741 0.028936744 0.47928828 1.1786581 -0.20914325 1.1547403 0.14370698 -0.05003865 -0.80331403 -0.43033665 0.46722457 -0.9586212 0.18435685 -0.4889617 -0.6294028 -0.48100215 -1.22455 -0.023662774 -2.0115752 0.1333183 -0.5686167 0.73635346 0.05901748 -1.0201992 -0.8562419 0.553322 0.7064744 0.7903857 0.52181935 0.4246951 0.36213425 -0.14073922 -0.42022124 -0.47832245 0.06480847 0.30109525 -0.18309683
157 0.5575887 0.091041334 -0.042585317 0.4525708 -0.22991684 -0.29335293 1.084949 0.38197458 0.58328253 -0.0634934 0.20806752 -0.3185408 -0.293439 -0.2592384 0.09698647 0.061714612 -0.4492367 0.12400071 -1.4599631 0.14794964 0.3049752 -1.3210701 -0.11623724 -0.019788546 0.3204607 -0.7543103 -0.25481683 -0.13315165 -0.72475123 -0.080174886 -0.46431294 -0.6973049 0.59678847 -0.034401707 -0.2795866 -1.0599073 -0.38800246 0.59435946 -1.1348628 -0.47180274 0.96275985 -0.105152 0.6444892 0.5974283 -0.2170377 -0.9532559 -1.5882887 0.848038 -0.21106063 0.013988851 0.052098576 0.18800059 -0.21089396 0.7459309 0.20329931 -0.8754426 0.2512374 0.21574332 -0.30937168 -0.30777165 -0.7838477 0.19831987 0.43772224 0.7625491
146 0.35493305 0.34870866 0.11409144 -0.47867617 0.26140398 0.45453292 -0.019524386 -0.8243902 1.626556 0.7583597 0.9154316 -0.022669919 0.0498649 1.2121582 0.062730715 -0.96148735 0.25224012 -0.4058051 -0.85722315 -0.33031908 0.66913307 0.4956492 0.90696084 0.17778571 -0.13423066 -0.39599034 -1.2156161 -0.6209742 -0.6123539 -0.69845724 0.3288679 0.2877718 0.6768167 1.0267135 0.16631906 -0.8595236 0.36166385 1.4066036 -1.1419764 0.36832598 0.43465307 0.16552363 -0.46904245 -0.23311639 -1.4153509 0.011378253 -0.65022296 0.8215763 -0.19935879 0.39543697 0.38332313 -0.03649128 0.3458223 0.93997586 0.9474433 0.0975526 0.5000726 -0.28613514 0.36118105 -0.21940936 0.19820732 0.13094157 -0.41944113 1.4695351
107 0.024741847 -0.010820373 -0.22306095 -0.91661274 1.0480303 -0.39353794 -0.6373533 -0.48172602 -0.12858327 0.20970863 -0.1402867 -0.18747005 -0.5717081 0.8407905 -0.3660917 -0.39012817 -0.3119387 -1.0245191 -0.64135027 0.66929483 0.73845696 0.927039 0.2113137 0.969093 0.8590483 0.3815979 -0.53208905 0.7973468 -0.28187653 0.41259038 0.2184559 -0.45473975 -0.05700975 -0.5901794 0.3180408 -1.2802801 -0.30325058 -0.45265222 -0.8167383 0.40757078 -0.54712784 0.0064595696 0.5322527 -1.8471174 -0.03579736 -1.8986685 -0.3581064 -0.6240548 1.4773678 0.8277273 -0.93029255 -1.529365 0.24520648 0.8741633 0.5222009 0.3548655 0.32528737 -0.006911397 -0.4233021 -0.58837867 0.17685585 0.14947124 0.4426482 0.48083073
95 0.4059089 0.10967548 -0.1233538 1.1071419 -0.39724386 -1.3819921 -0.10534074 -0.14390078 1.2931359 0.24482277 0.31747392 -0.9639489 -0.6439434 0.7940377 0.31956545 -0.35102946 0.1382015 -0.05438209 -0.6695521 -0.24465717 0.48591623 -0.15332076 -0.118204154 0.19930786 -0.1804169 0.25377274 -1.3762113 -0.2165976 -0.8779709 -0.5457753 0.3282809 -0.18216333 -0.29563522 -0.0647197 -0.9100004 -0.026032899 -0.4694504 -0.90645427 0.16163129 -0.66547745 1.1032156 -0.033426035 -0.90076023 -0.54711413 -0.19262086 -0.75018877 0.07170583 1.6522669 -0.18672697 -0.08115384 0.42691383 0.5801222 0.22734116 0.24070595 -0.5587955 -1.943759 0.5803008 -0.80120456 -1.3089433 0.6772183 0.79643565 0.60293835 -0.5775726 0.6428197
192 -0.3117637 -0.17838675 -0.85088754 0.23201357 0.5738592 -0.96251035 -0.36405256 -0.6351597 0.497313 0.2979524 -0.048559397 0.4869613 -0.46912122 -0.010627019 -0.42949808 -0.07073937 -0.6525079 -0.621194 -0.5282724 0.7984046 1.2546188 1.676759 0.90846306 0.1286757 0.7916966 0.9083353 0.22421864 -1.0288486 -0.029425249 -0.24718544 -0.25927442 -0.9559107 0.44396654 -0.2521627 0.23143528 -0.92111737 -0.4326705 0.88514495 -0.96062446 0.34203783 -0.23641576 0.15501726 -0.11505608 -1.2102822 -0.30661553 -1.7179029 -0.042859666 -0.45356005 0.48237264 0.79543936 0.011473277 -0.2310297 -0.32368174 1.7863076 0.6306689 0.6742353 0.0654599 -0.18019202 0.39320445 -0.32174507 -0.23288117 -0.023036996 1.0130246 0.07634452
25 -0.028532282 0.7335559 0.10078385 1.1906307 0.21486121 -1.5071782 0.8770811 -0.56863374 1.4422492 0.5679876 -0.26876834 -0.4923339 -0.4291466 0.85011584 0.7248983 -0.40094316 -0.2734209 -0.15865979 -1.3174655 -0.96315485 1.1643424 0.45714962 0.42239082 -0.6523805 0.9002637 0.6591871 -0.84135014 -0.07694495 0.41360226 -0.6532928 -1.0829481 -0.7046048 -0.10410323 -0.59169966 -0.40230495 0.56128037 0.5143377 0.0053102835 -0.07955909 -0.7529679 0.4404205 -0.08164444 -0.39657474 -0.037724685 -0.7550871 0.19312605 -0.49060178 1.9018458 -0.2754513 0.22550559 -0.13448784 0.51813006 -0.0877956 1.4383348 0.5626403 -1.2721773 0.9676515 0.29773945 -0.9168408 0.1568986 0.4872238 0.20581536 -0.66060865 -0.8375622
28 0.22167706 1.1136799 0.26301062 0.31337306 -0.50458795 -0.53455 0.064853735 0.71844923 0.966828 0.5412942 0.13354746 -0.4508032 -0.9076381 0.85435873 0.977318 0.8879612 -1.0234343 -0.78080755 -0.40543967 -0.56771743 -0.22755408 -1.2021115 -0.3889942 0.71373564 1.2516001 0.849602 -1.2606833 -0.07922 -0.17234167 -0.45364442 -0.9418925 0.06596624 -0.05248798 0.17796785 -0.54941803 -0.68272835 -0.029839562 0.28182933 -0.3650475 -0.48429254 0.08155522 0.24416877 -0.6359278 0.41574082 0.13496262 -0.34426197 0.31465113 1.4488714 0.40447563 0.044333998 -0.34921765 0.71256423 0.20773274 1.1933118 0.75740707 -1.6529468 0.73805153 0.26141736 -0.7627665 0.7124499 1.3560638 0.45885596 -0.66442084 0.42561495
110 -1.5754868 0.23767549 0.82115644 -0.28538513 -0.42164335 -0.6180636 -0.21918404 -0.13773692 0.76437443 0.4881791 -1.0973629 -0.34852678 -0.6414711 -0.43469813 0.18799783 1.2403008 0.8777214 0.013602252 -0.53931606 -0.30588743 0.34203297 -0.11340089 -0.3003602 -1.1808527 0.28259042 -0.83391243 -0.25418824 -0.035426944 0.29483646 -0.120389655 -0.61153764 0.103541344 0.53065914 0.20788963 -0.19946562 1.1385764 -0.68948054 0.0036407604 -0.7246828 0.86568695 1.2117685 -1.4017783 -0.084763 0.15416384 0.2377229 -0.33937973 -1.1915584 0.13794355 1.1235267 0.7210376 0.81688344 0.2664673 1.1909992 0.66980475 1.309985 -2.7227616 0.31040114 -0.37882555 -0.18466505 1.3027885 -0.87213254 -0.11366543 -0.5663595 -0.15964048
66 0.12448485 0.38969576 1.003866 -2.005754 -1.6677545 -0.39988947 0.27847943 -0.17882784 0.10293457 0.90435964 -0.60409176 -1.0173221 -0.34553906 -0.8089016 0.036257032 0.53396654 -0.51248425 0.94670004 -2.3811252 -1.2226031 1.7727172 -1.129773 0.06652887 -1.013955 -0.0103259785 -0.35602117 -0.076768726 0.86628747 -0.267473 -0.35380095 -0.8499302 -1.4393408 -0.07615631 -0.46679798 -1.070859 -0.15201814 -1.3542649 0.86032784 -1.6327187 -0.36649024 1.2671543 0.08191502 -1.4835186 -0.5165308 -0.67843777 0.27491993 -0.652854 1.2302979 0.7914987 0.7187883 -0.2735152 -0.9247422 -0.023018677 1.7795218 0.5729661 -1.0233376 -0.7832989 -0.22323883 -0.19944029 -0.45795298 0.2171338 -0.7699164 0.2069868 1.1150445
51 -0.089165345 0.8049941 0.5250788 0.064018 -0.036194313 -0.9693645 0.2105925 0.5112631 1.2193748 0.71525955 0.5573415 0.16195974 0.03460906 0.0087752035 0.38660452 -0.50069076 -0.0844065 -0.065301426 -1.2567037 0.60691166 -0.40202537 -1.5435838 1.0963075 -0.33794644 0.50610673 -0.5615491 -0.45085388 -0.20778657 -0.75558907 0.023045542 -0.33901957 0.85246944 0.04604103 -0.20239115 -0.21170382 0.17860906 0.7445891 -0.29080194 0.124443434 0.31366935 0.5398997 0.23389769 0.63794005 -0.7616438 0.32332072 -0.79648054 -0.14266266 0.40583122 0.7244871 0.59074724 0.6740781 0.0127594 0.94643015 1.1624162 0.13908815 -0.4574917 0.16006137 -1.3953888 -0.1090648 -0.34437323 0.6056722 -0.34693098 0.30551875 0.34929845
132 -1.3705969 -0.58454 1.0481036 -0.74738467 -0.5483855 -0.79782325 0.33922437 0.12760931 -1.0457373 1.1331633 -0.18997371 -0.96596783 -1.4100001 -0.16485128 0.53649354 0.6054243 -0.27932513 -0.31198165 -1.4617175 0.07142354 1.0988089 -0.1775098 -0.6145403 -0.6306353 0.49950883 -0.30399725 0.2006915 -0.38509765 -0.1313701 -0.5357509 -1.3723571 0.04038403 0.82329583 0.41725454 -0.59054494 0.7466175 -0.59600496 0.25252673 -0.4053137 0.45400816 0.61928296 -0.9778045 -0.2016659 -0.15245956 -0.0840537 -0.13698821 -0.5027972 1.3111397 1.4497871 1.1103024 0.36615592 -0.78706104 0.8988472 0.6578328 1.3141327 -1.3697166 -0.072863385 0.43212798 -1.7737684 0.8224987 -0.27643293 -0.9351726 -0.47083658 -0.34131438
152 -0.5131056 0.116835736 0.49412158 -0.51120794 -1.1708187 0.03669536 0.66102046 1.0253434 -0.73532695 1.2117811 0.023250286 -1.0829021 -1.5047693 -0.52848965 0.2567884 1.3415772 0.09584822 0.26469475 -0.9990931 0.0005390748 0.7698091 -0.3691482 0.5663178 -0.6889464 -0.43700036 -0.24971554 0.11746043 -0.27259332 -0.024314221 0.43119106 -1.3725566 0.2592477 1.1010925 0.28674987 0.13919486 1.1117505 -1.0995812 0.80056363 -0.8470778 0.55478394 0.73181856 -0.9705065 0.40623036 0.4247851 -0.063794866 -0.39326772 -0.592887 1.2633306 1.0398479 -0.37516078 0.8363393 -0.6010822 0.72975206 1.2446748 1.0886158 -1.6176289 0.5896742 -0.16250633 -0.49762118 1.0154706 -0.5494913 0.3492221 -0.83061546 0.73436123
115 -0.620023 0.8227808 -0.25440785 0.12802762 0.599197 -1.0680859 -0.95285803 -1.3973168 0.8701754 -0.79048336 -0.49217683 0.52003586 0.1794789 -0.48253706 0.22199619 0.18915957 0.14415774 0.12764907 -1.3997513 0.5181873 0.7031005 -0.22905482 1.0809656 0.13031718 0.5286817 0.61463004 -0.60204583 0.012275614 -0.12175995 -0.55843234 0.16468234 0.16055213 0.14787713 -0.21366037 1.3326175 -0.9806237 -0.77607405 0.115388334 -0.39621183 0.33403367 0.16992077 -0.89591265 0.5722018 -1.0062661 -0.22169018 -1.3034143 -0.27827692 -0.3277258 0.9338375 0.41120481 -0.74524635 -0.8685466 -0.67542607 1.1835968 -0.37641704 -0.03715646 0.7375565 0.48650214 0.11886527 -1.0637536 -0.73763907 -0.041727647 0.6919584 -0.41608858
111 -1.365536 0.29477006 1.1343436 -0.9276393 -1.4511806 -0.7842166 0.7290229 -0.3812696 -0.17565444 0.46848568 -0.44289023 -0.8091248 -1.7088578 0.11381601 -1.0239187 0.9488816 0.3761564 0.23733763 -0.24337591 -0.1972017 -0.24783826 -0.05400932 0.57279426 -1.0428473 0.51446974 -0.018463043 -0.36822516 -0.49705523 -0.26792002 -0.38384655 -0.6527043 -0.8565425 0.54957944 0.44885898 -0.54660606 0.8377518 -0.50667965 0.7459951 -0.48350495 0.7849124 1.5676081 -0.7712974 0.052086227 -0.0709891 -0.81954795 -0.32980442 -0.51292586 0.8411614 1.7039926 -0.12677306 0.49310723 0.3211972 0.5081663 0.3645328 0.62055606 -1.9311173 -0.28031284 0.6302921 -0.63695514 0.42683697 -0.122167125 -0.034677885 -0.7530834 -0.05390096
